{
    "in_shape": [
        null,
        null,
        1
    ],
    "layers": [
        {
            "type": "lstm",
            "activation": "tanh",
            "shape": [
                null,
                null,
                12
            ],
            "weights": [
                [
                    [
                        0.3618413507938385,
                        -0.05164802819490433,
                        -0.09087814390659332,
                        0.7567477822303772,
                        -0.030020175501704216,
                        -0.23048514127731323,
                        0.4099869430065155,
                        -0.27944645285606384,
                        0.26533377170562744,
                        -0.004400110803544521,
                        -0.779504656791687,
                        0.18469233810901642,
                        0.2597534954547882,
                        0.20965710282325745,
                        0.2413899004459381,
                        0.34782788157463074,
                        -0.3394497334957123,
                        -0.011439710855484009,
                        -0.01170167326927185,
                        -0.28718823194503784,
                        -0.14449632167816162,
                        0.0681990385055542,
                        -0.08716648817062378,
                        0.04768425226211548,
                        -0.19960029423236847,
                        -0.16227394342422485,
                        0.1360631287097931,
                        -0.9249576330184937,
                        -0.9533704519271851,
                        -0.3397039771080017,
                        0.07556082308292389,
                        0.47583848237991333,
                        0.9106547236442566,
                        1.0419063568115234,
                        -0.720011830329895,
                        0.613202691078186,
                        -0.011439072899520397,
                        -0.13242755830287933,
                        0.36840417981147766,
                        0.5223930478096008,
                        0.1173093244433403,
                        -0.34101900458335876,
                        -0.20702460408210754,
                        -0.5398616790771484,
                        0.3892247974872589,
                        0.04756511002779007,
                        -0.7209084033966064,
                        0.10719820857048035
                    ]
                ],
                [
                    [
                        -0.08159899711608887,
                        -0.16351047158241272,
                        -0.06233706325292587,
                        0.016764091327786446,
                        0.09804286062717438,
                        0.0007153645856305957,
                        -0.05127546936273575,
                        -0.17932826280593872,
                        0.02691575139760971,
                        -0.16228553652763367,
                        -0.14576324820518494,
                        0.23663084208965302,
                        -0.1649080216884613,
                        -0.2318202704191208,
                        -0.012517457827925682,
                        0.08266980946063995,
                        -0.06234714761376381,
                        -0.13508200645446777,
                        -0.025621091946959496,
                        0.2607363760471344,
                        0.07740525156259537,
                        -0.08266846835613251,
                        0.042675189673900604,
                        -0.2856825888156891,
                        -0.04388418048620224,
                        0.042572613805532455,
                        -0.10442005097866058,
                        0.09256775677204132,
                        0.1998014748096466,
                        -0.042044587433338165,
                        -0.028390901163220406,
                        -0.16623550653457642,
                        0.4350832402706146,
                        -0.1243709847331047,
                        0.10700526088476181,
                        -0.01651754043996334,
                        0.2090330868959427,
                        0.23229315876960754,
                        -0.15807673335075378,
                        -0.08584820479154587,
                        0.03942250460386276,
                        0.02542012557387352,
                        -0.14154858887195587,
                        0.15604019165039062,
                        0.012269983999431133,
                        -0.005331129767000675,
                        -0.09246528148651123,
                        -0.20885366201400757
                    ],
                    [
                        0.2216854989528656,
                        -0.17974013090133667,
                        0.02811196818947792,
                        -0.02718839980661869,
                        0.2471480369567871,
                        0.07914716750383377,
                        0.0891803652048111,
                        0.06042489409446716,
                        0.18014901876449585,
                        0.08743647485971451,
                        0.1318003088235855,
                        -0.19980502128601074,
                        0.2549698054790497,
                        0.059824325144290924,
                        -0.02709144726395607,
                        0.3193640112876892,
                        -0.021585097536444664,
                        0.11358556151390076,
                        0.14274974167346954,
                        -0.03764762729406357,
                        -0.009428804740309715,
                        0.0291660875082016,
                        0.10792543739080429,
                        0.1415371596813202,
                        -0.03754871338605881,
                        0.10707524418830872,
                        -0.17566171288490295,
                        0.07414057850837708,
                        0.37110069394111633,
                        0.10193119943141937,
                        0.20339293777942657,
                        0.01664775237441063,
                        0.01441345363855362,
                        0.08287079632282257,
                        -0.040961526334285736,
                        -0.002848768839612603,
                        -0.011438176035881042,
                        -0.050856705754995346,
                        -0.07328803092241287,
                        -0.25159335136413574,
                        -0.05710870027542114,
                        0.19090783596038818,
                        -0.004612835124135017,
                        -0.0012891385704278946,
                        -0.08935467153787613,
                        0.17022396624088287,
                        0.13616740703582764,
                        -0.29532474279403687
                    ],
                    [
                        0.17141126096248627,
                        -0.020975613966584206,
                        0.08622633665800095,
                        0.11777473241090775,
                        -0.11657652258872986,
                        0.0200311578810215,
                        0.057295139878988266,
                        -0.27313414216041565,
                        -0.036790963262319565,
                        -0.03826496750116348,
                        0.06997094303369522,
                        -0.004424724727869034,
                        -0.2131860852241516,
                        -0.1963343620300293,
                        0.023931996896862984,
                        0.0033280160278081894,
                        0.033656127750873566,
                        0.15295018255710602,
                        -0.11368313431739807,
                        -0.2596253454685211,
                        0.008135347627103329,
                        0.09661752730607986,
                        -0.20744876563549042,
                        0.3166519105434418,
                        -0.11613401025533676,
                        -0.1341342180967331,
                        -0.025918344035744667,
                        0.2834431529045105,
                        0.22258341312408447,
                        0.1185109093785286,
                        -0.1571497917175293,
                        0.15492266416549683,
                        0.219034805893898,
                        0.10486865043640137,
                        -0.1851365864276886,
                        -0.07366938889026642,
                        0.20103205740451813,
                        0.1137956827878952,
                        0.21417881548404694,
                        -0.035555992275476456,
                        0.15490375459194183,
                        -0.1448139250278473,
                        0.028201835229992867,
                        -0.09424328058958054,
                        0.014623965136706829,
                        0.0887618288397789,
                        0.03971601277589798,
                        0.13732105493545532
                    ],
                    [
                        -0.14980792999267578,
                        0.027211854234337807,
                        -0.07245317101478577,
                        0.3154185116291046,
                        -0.008961000479757786,
                        0.026433372870087624,
                        0.01852901093661785,
                        -0.11974773555994034,
                        0.24962319433689117,
                        0.11872806400060654,
                        -0.19708849489688873,
                        -0.2729451656341553,
                        -0.1552203744649887,
                        -0.017132142558693886,
                        -0.12546737492084503,
                        0.08844783157110214,
                        0.05858682841062546,
                        0.18090078234672546,
                        -0.39510735869407654,
                        0.016799669712781906,
                        0.181380957365036,
                        -0.03271704167127609,
                        0.036058761179447174,
                        0.0037246160209178925,
                        -0.11550892889499664,
                        0.18079200387001038,
                        0.018793709576129913,
                        -0.02069096453487873,
                        -0.08235988765954971,
                        0.18795061111450195,
                        0.09447723627090454,
                        0.12127155810594559,
                        -0.08014718443155289,
                        0.02943434566259384,
                        0.19587188959121704,
                        -0.01204602513462305,
                        -0.14089104533195496,
                        0.13708952069282532,
                        0.09283174574375153,
                        0.1804027259349823,
                        0.057279303669929504,
                        0.19265864789485931,
                        0.14124968647956848,
                        0.2701605558395386,
                        0.09821882098913193,
                        0.020148813724517822,
                        -0.027754534035921097,
                        -0.09361086040735245
                    ],
                    [
                        0.005334729328751564,
                        0.2500196099281311,
                        -0.012707158923149109,
                        -0.08379406481981277,
                        -0.08139399439096451,
                        -0.09967748820781708,
                        0.07832074165344238,
                        -0.20134375989437103,
                        0.16700182855129242,
                        -0.022193241864442825,
                        0.13047699630260468,
                        0.07872287929058075,
                        0.07259871810674667,
                        0.03596828505396843,
                        -0.0680340901017189,
                        -0.13633769750595093,
                        -0.07621807605028152,
                        -0.08164795488119125,
                        -0.1455649435520172,
                        -0.1400325447320938,
                        0.05740254372358322,
                        -0.05053891986608505,
                        -0.08986712247133255,
                        0.03741248697042465,
                        0.09840236604213715,
                        -0.18910633027553558,
                        -0.23850002884864807,
                        -0.041931964457035065,
                        0.10348105430603027,
                        0.1048111841082573,
                        0.2426455169916153,
                        -0.06706057488918304,
                        -0.0754520446062088,
                        0.062101803719997406,
                        0.2213951051235199,
                        0.3584319055080414,
                        0.23322191834449768,
                        0.14923705160617828,
                        -0.062057431787252426,
                        0.21288034319877625,
                        -0.2142389565706253,
                        0.07961680740118027,
                        -0.06543271988630295,
                        -0.09445475041866302,
                        -0.35489514470100403,
                        -0.14009013772010803,
                        0.06100495532155037,
                        -0.017289910465478897
                    ],
                    [
                        0.0213608518242836,
                        -0.07176075130701065,
                        0.1448759287595749,
                        -0.0215289443731308,
                        -0.0383932963013649,
                        0.1473928838968277,
                        -0.14211973547935486,
                        0.08011407405138016,
                        0.11621208488941193,
                        -0.01807090826332569,
                        -0.19816868007183075,
                        -0.3440511226654053,
                        0.16177073121070862,
                        0.08392814546823502,
                        -0.009764013811945915,
                        0.03632545843720436,
                        -0.12078430503606796,
                        -0.06651581823825836,
                        0.11871334910392761,
                        -0.2200571894645691,
                        0.014175514690577984,
                        0.2086644321680069,
                        -0.016701679676771164,
                        -0.19060376286506653,
                        0.36314383149147034,
                        -0.12249168008565903,
                        0.06268849223852158,
                        -0.14841236174106598,
                        -0.04391003027558327,
                        0.11725258827209473,
                        -0.08945786207914352,
                        -0.03841002658009529,
                        0.2729801833629608,
                        -0.11457303166389465,
                        -0.08934548497200012,
                        0.12462960928678513,
                        0.16797387599945068,
                        -0.028323620557785034,
                        0.17522892355918884,
                        0.2110830694437027,
                        0.32597815990448,
                        -0.02494215965270996,
                        -0.033223483711481094,
                        0.08239484578371048,
                        -0.059625133872032166,
                        -0.09110978990793228,
                        0.05161411687731743,
                        -0.1114395260810852
                    ],
                    [
                        -0.03235098347067833,
                        -0.14408226311206818,
                        -0.18222397565841675,
                        0.00869359727948904,
                        0.031245524063706398,
                        -0.06964607536792755,
                        0.059325702488422394,
                        0.21006052196025848,
                        0.17724750936031342,
                        -0.25124773383140564,
                        0.0385117307305336,
                        -0.30878084897994995,
                        0.06531241536140442,
                        0.05492943152785301,
                        -0.29808807373046875,
                        -0.20958416163921356,
                        0.20865784585475922,
                        -0.035978011786937714,
                        -0.02800416760146618,
                        0.2892439365386963,
                        -0.19397951662540436,
                        0.041429247707128525,
                        -0.07535432279109955,
                        -0.013676716946065426,
                        -0.06556510180234909,
                        -0.1841001957654953,
                        -0.1434919238090515,
                        0.16190464794635773,
                        0.02529727853834629,
                        -0.0313437283039093,
                        -0.0960136279463768,
                        0.02193482592701912,
                        -0.030934836715459824,
                        0.2986809313297272,
                        0.15053124725818634,
                        0.10916832834482193,
                        -0.022019315510988235,
                        0.049057088792324066,
                        0.001395619474351406,
                        -0.06439564377069473,
                        0.22141879796981812,
                        -0.197025328874588,
                        -0.06594950705766678,
                        -0.131106436252594,
                        0.0012419684790074825,
                        -0.00586942071095109,
                        -0.2190411537885666,
                        -0.0039983042515814304
                    ],
                    [
                        -0.1301601082086563,
                        0.37502583861351013,
                        0.08449386060237885,
                        -0.135298952460289,
                        -0.047733016312122345,
                        -0.1611739844083786,
                        0.04398445785045624,
                        0.1323651671409607,
                        0.028771616518497467,
                        0.11551576107740402,
                        -0.028107836842536926,
                        -0.04970338195562363,
                        0.22460830211639404,
                        -0.014973265118896961,
                        -0.0040921857580542564,
                        0.33550921082496643,
                        -0.05573935806751251,
                        -0.23262740671634674,
                        0.15517763793468475,
                        0.07666216790676117,
                        -0.033573076128959656,
                        -0.09258950501680374,
                        -0.10014667361974716,
                        -0.02395564876496792,
                        -0.13413019478321075,
                        -0.021219031885266304,
                        0.15013591945171356,
                        0.04636848717927933,
                        0.07191386818885803,
                        0.036584824323654175,
                        -0.21326813101768494,
                        0.026131240651011467,
                        0.09242810308933258,
                        0.3889843225479126,
                        0.12133819609880447,
                        -0.15262064337730408,
                        0.11633937060832977,
                        0.20691287517547607,
                        0.09156010299921036,
                        0.019277527928352356,
                        -0.07140696048736572,
                        -0.04182513430714607,
                        0.09300942718982697,
                        0.2763270437717438,
                        0.031350694596767426,
                        -0.028045140206813812,
                        0.11655018478631973,
                        0.12287858873605728
                    ],
                    [
                        -0.0576481819152832,
                        0.11614889651536942,
                        -0.11765998601913452,
                        0.09077330678701401,
                        -0.22839908301830292,
                        -0.23580925166606903,
                        -0.10680577158927917,
                        0.1722162812948227,
                        -0.09049903601408005,
                        0.17130136489868164,
                        -0.10931991040706635,
                        0.08449685573577881,
                        0.02873460203409195,
                        0.04121231287717819,
                        -0.14349304139614105,
                        -0.15227672457695007,
                        -0.1587134450674057,
                        0.008834512904286385,
                        -0.024647222831845284,
                        0.11214519292116165,
                        0.15102550387382507,
                        -0.0549539215862751,
                        0.10124798864126205,
                        0.07845953106880188,
                        0.08885957300662994,
                        0.23109501600265503,
                        -0.03569132462143898,
                        -0.0975341871380806,
                        0.21373043954372406,
                        -0.031542692333459854,
                        -0.025571350008249283,
                        0.14053916931152344,
                        0.07562368363142014,
                        -0.08691050112247467,
                        0.13017019629478455,
                        0.1642228066921234,
                        -0.041193969547748566,
                        0.010838848538696766,
                        0.2173411250114441,
                        -0.08738698065280914,
                        0.07986355572938919,
                        -0.287161260843277,
                        -0.17128746211528778,
                        -0.1679479479789734,
                        0.04432082548737526,
                        0.31927490234375,
                        0.32486459612846375,
                        -0.1406538337469101
                    ],
                    [
                        0.012544977478682995,
                        -0.38732704520225525,
                        0.2006772756576538,
                        0.005886547267436981,
                        -0.19062863290309906,
                        -0.12157779932022095,
                        0.07977123558521271,
                        -0.08401010930538177,
                        0.08927597850561142,
                        -0.017384106293320656,
                        0.010124308057129383,
                        0.012342851608991623,
                        -0.04031394049525261,
                        -0.017521893605589867,
                        0.1607111692428589,
                        -0.0085291163995862,
                        0.2468031942844391,
                        0.10620072484016418,
                        0.08221365511417389,
                        0.10246321558952332,
                        0.10100646317005157,
                        -0.18913105130195618,
                        -0.10902130603790283,
                        0.10518842935562134,
                        0.21259626746177673,
                        0.011229571886360645,
                        -0.09860838949680328,
                        -0.21400749683380127,
                        -0.1903945505619049,
                        0.039515335112810135,
                        -0.14258374273777008,
                        -0.056827906519174576,
                        0.1973014771938324,
                        0.30580732226371765,
                        0.008689395152032375,
                        0.15431393682956696,
                        -0.22163733839988708,
                        0.060558244585990906,
                        -0.11093602329492569,
                        -0.04185507073998451,
                        -0.09144675731658936,
                        0.09521795064210892,
                        -0.11650320142507553,
                        0.060453783720731735,
                        0.014975259080529213,
                        -0.039320897310972214,
                        0.33822330832481384,
                        0.1184004619717598
                    ],
                    [
                        0.13072293996810913,
                        0.037543442100286484,
                        -0.1265592873096466,
                        -0.06460490077733994,
                        -0.07376042008399963,
                        -0.26715943217277527,
                        0.07660983502864838,
                        -0.029046081006526947,
                        0.08429218828678131,
                        -0.1281379759311676,
                        -0.11561715602874756,
                        0.05741727352142334,
                        -0.14733721315860748,
                        -0.12770681083202362,
                        -0.18184833228588104,
                        0.27780699729919434,
                        0.11526250094175339,
                        -0.09837038815021515,
                        0.12202741205692291,
                        -0.14697277545928955,
                        -0.23255114257335663,
                        -0.004481903277337551,
                        -0.017484212294220924,
                        -0.1034892201423645,
                        0.10035805404186249,
                        -0.1427661031484604,
                        -0.10122537612915039,
                        0.07558812201023102,
                        -0.08552142232656479,
                        0.053950365632772446,
                        -0.06501500308513641,
                        -0.005877956748008728,
                        -0.2831490933895111,
                        -0.3278428018093109,
                        0.12157924473285675,
                        -0.1072235256433487,
                        -0.10744645446538925,
                        0.133915975689888,
                        -0.06256368011236191,
                        -0.03694959357380867,
                        0.2775770425796509,
                        0.2290322333574295,
                        -0.052546486258506775,
                        -0.04488541930913925,
                        -0.015473229810595512,
                        0.14806044101715088,
                        0.2871586084365845,
                        0.12755364179611206
                    ],
                    [
                        0.12234196811914444,
                        -0.07059185951948166,
                        -0.19058313965797424,
                        0.23323553800582886,
                        0.06060894578695297,
                        0.17623429000377655,
                        0.08596689999103546,
                        -0.2230186015367508,
                        0.11823946982622147,
                        0.09018240869045258,
                        0.19361409544944763,
                        0.08847156912088394,
                        -0.1471823751926422,
                        0.23795294761657715,
                        -0.1447397619485855,
                        0.03458550199866295,
                        -0.3054417371749878,
                        -0.11751490831375122,
                        0.19186170399188995,
                        0.12685295939445496,
                        0.08459395915269852,
                        0.10135182738304138,
                        0.08183947950601578,
                        0.14356181025505066,
                        -0.0839889645576477,
                        -0.17525027692317963,
                        -0.03422878310084343,
                        -0.3406466841697693,
                        -0.036975711584091187,
                        -0.006162033881992102,
                        -0.08303909748792648,
                        -0.16089120507240295,
                        -0.007976137101650238,
                        0.00403368566185236,
                        0.19250434637069702,
                        -0.014941638335585594,
                        0.03574373573064804,
                        -0.09203927218914032,
                        0.120611771941185,
                        -0.1979118436574936,
                        0.14065726101398468,
                        -0.0717296227812767,
                        0.041677020490169525,
                        0.19388309121131897,
                        -0.028666149824857712,
                        -0.004935652948915958,
                        0.01732664555311203,
                        0.26357877254486084
                    ]
                ],
                [
                    0.046910252422094345,
                    -0.08564980328083038,
                    -0.06384417414665222,
                    0.9436279535293579,
                    0.881956934928894,
                    0.2909300923347473,
                    -0.09148240089416504,
                    0.5702717900276184,
                    0.9491866827011108,
                    0.969078004360199,
                    0.7780374884605408,
                    0.8653627634048462,
                    -0.0025571908336132765,
                    -0.05780152603983879,
                    -0.06439525634050369,
                    -0.04370632395148277,
                    -0.04434865340590477,
                    0.0037587489932775497,
                    0.05736760422587395,
                    -0.13311971724033356,
                    -0.040027592331171036,
                    -0.0828673467040062,
                    -0.01639135740697384,
                    -0.019259696826338768,
                    -0.04591779410839081,
                    0.023266220465302467,
                    0.09117483347654343,
                    -0.1792435199022293,
                    -0.015314530581235886,
                    0.09006379544734955,
                    0.046344973146915436,
                    -0.12289033085107803,
                    0.07226922363042831,
                    -0.0017860927619040012,
                    0.21992038190364838,
                    0.02491704933345318,
                    0.14084748923778534,
                    -0.027211561799049377,
                    -0.16206303238868713,
                    0.8330474495887756,
                    0.8553797602653503,
                    0.337117075920105,
                    -0.13817612826824188,
                    0.6063275337219238,
                    0.9958745837211609,
                    0.8686364889144897,
                    0.714661180973053,
                    0.9239363074302673
                ]
            ]
        },
        {
            "type": "unknown",
            "activation": "",
            "shape": [
                null,
                null,
                1
            ],
            "weights": [
                [
                    [
                        -0.2037457376718521
                    ],
                    [
                        -0.15526889264583588
                    ],
                    [
                        0.11437975615262985
                    ],
                    [
                        -0.32723909616470337
                    ],
                    [
                        -0.3704061210155487
                    ],
                    [
                        -0.3311667740345001
                    ],
                    [
                        0.08603459596633911
                    ],
                    [
                        0.33878377079963684
                    ],
                    [
                        0.30966266989707947
                    ],
                    [
                        0.2975650131702423
                    ],
                    [
                        -0.3120057284832001
                    ],
                    [
                        0.40386027097702026
                    ]
                ],
                [
                    [
                        1.0
                    ]
                ],
                [
                    0.005333986598998308
                ]
            ]
        }
    ]
}