{
    "in_shape": [
        null,
        null,
        1
    ],
    "layers": [
        {
            "type": "lstm",
            "activation": "tanh",
            "shape": [
                null,
                null,
                12
            ],
            "weights": [
                [
                    [
                        -1.1316953897476196,
                        -0.008401300758123398,
                        -0.024668646976351738,
                        -0.014989855699241161,
                        -0.062313418835401535,
                        -0.05380156263709068,
                        1.5813158750534058,
                        -0.11040622740983963,
                        -0.003390071215108037,
                        -0.01910759136080742,
                        -0.1319250762462616,
                        0.031304117292165756,
                        -0.08041214942932129,
                        0.03259691596031189,
                        0.035945117473602295,
                        0.01144254207611084,
                        0.2501218616962433,
                        -0.009417474269866943,
                        0.03409874439239502,
                        -0.14171762764453888,
                        0.07987219095230103,
                        -0.13446730375289917,
                        -0.05126252770423889,
                        -0.10248342156410217,
                        0.41942140460014343,
                        -0.2858739495277405,
                        -0.2811429798603058,
                        0.283184289932251,
                        0.30101460218429565,
                        -0.2828751802444458,
                        -0.5341323018074036,
                        0.28032729029655457,
                        0.2834823727607727,
                        0.2847135365009308,
                        -0.2808015048503876,
                        -0.2905198931694031,
                        -1.0984686613082886,
                        -0.008852590806782246,
                        -0.02387959137558937,
                        -0.03265587240457535,
                        -0.02600463293492794,
                        -0.046534523367881775,
                        1.5996215343475342,
                        -0.1304776668548584,
                        -0.00851496309041977,
                        -0.04550935700535774,
                        -0.15403391420841217,
                        0.0622519813477993
                    ]
                ],
                [
                    [
                        -0.1481531858444214,
                        0.10709208995103836,
                        -0.062233489006757736,
                        0.21061570942401886,
                        -0.09406300634145737,
                        -0.058364883065223694,
                        0.03172655031085014,
                        0.09913869202136993,
                        -0.10753025114536285,
                        -0.07394997030496597,
                        0.015773478895425797,
                        0.12551924586296082,
                        -0.13776490092277527,
                        -0.001068853191100061,
                        0.15518920123577118,
                        -0.059886205941438675,
                        -0.005496535450220108,
                        -0.04485168680548668,
                        -0.19142137467861176,
                        0.02108136937022209,
                        0.08059819042682648,
                        -0.15019579231739044,
                        0.07923555374145508,
                        0.08068288862705231,
                        -0.15720443427562714,
                        -0.033842917531728745,
                        -0.40218931436538696,
                        0.25014203786849976,
                        -0.026717033237218857,
                        -0.16843906044960022,
                        0.089114248752594,
                        -0.24939599633216858,
                        0.07932869344949722,
                        0.11336556822061539,
                        -0.04500606656074524,
                        0.08615545183420181,
                        0.05348312109708786,
                        -0.13460591435432434,
                        -0.19267311692237854,
                        0.13189370930194855,
                        -0.18486671149730682,
                        0.14147499203681946,
                        -0.21376262605190277,
                        -0.0804629921913147,
                        0.13686980307102203,
                        0.09716714173555374,
                        0.15158192813396454,
                        0.3515537679195404
                    ],
                    [
                        0.08671799302101135,
                        -0.21265220642089844,
                        0.060657721012830734,
                        0.08035442978143692,
                        0.05806320160627365,
                        0.0553315132856369,
                        0.21097570657730103,
                        0.007533314637839794,
                        -0.008901719003915787,
                        0.11673863232135773,
                        -0.12438669800758362,
                        0.14559483528137207,
                        -0.11515119671821594,
                        -0.1527310013771057,
                        -0.16235719621181488,
                        -0.10247992724180222,
                        -0.20253071188926697,
                        -0.02175195887684822,
                        -0.05000913143157959,
                        -0.008410393260419369,
                        0.007923239842057228,
                        -0.20327425003051758,
                        0.0556405745446682,
                        0.07503946125507355,
                        -0.04073841869831085,
                        0.11384159326553345,
                        0.05590338259935379,
                        -0.015564590692520142,
                        -0.018500985577702522,
                        0.050948165357112885,
                        7.473118603229523e-05,
                        0.29022452235221863,
                        -0.07337843626737595,
                        0.08261451125144958,
                        0.08966411650180817,
                        0.06503479182720184,
                        0.26356807351112366,
                        -0.004769798368215561,
                        0.11163406074047089,
                        -0.2726632058620453,
                        0.08994045108556747,
                        -0.1496879905462265,
                        0.10743535310029984,
                        -0.005327205173671246,
                        0.48686736822128296,
                        0.2422357052564621,
                        0.022541357204318047,
                        0.2095196545124054
                    ],
                    [
                        -0.05409151688218117,
                        0.021728526800870895,
                        -0.05329740792512894,
                        0.06757982075214386,
                        -0.26652583479881287,
                        -0.2802268862724304,
                        0.16667425632476807,
                        0.048337146639823914,
                        0.19708594679832458,
                        -0.1809600591659546,
                        0.11150846630334854,
                        -0.09403271973133087,
                        -0.0033395567443221807,
                        -0.11265348643064499,
                        -0.06340476125478745,
                        0.0651940181851387,
                        0.060718461871147156,
                        0.15436522662639618,
                        0.03933122754096985,
                        0.23063509166240692,
                        -0.2509995996952057,
                        -0.0007282127626240253,
                        -0.04612477496266365,
                        0.036120474338531494,
                        -0.05499254912137985,
                        0.09448259323835373,
                        -0.15632882714271545,
                        -0.07923698425292969,
                        0.10028152167797089,
                        -0.1428963541984558,
                        -0.03989757224917412,
                        -0.033461470156908035,
                        -0.040467917919158936,
                        -0.401477575302124,
                        0.05944027379155159,
                        0.14676178991794586,
                        -0.02092115208506584,
                        0.0746074914932251,
                        -0.23534545302391052,
                        -0.012326331809163094,
                        0.03829815611243248,
                        0.011007722467184067,
                        0.40701255202293396,
                        -0.06183035671710968,
                        0.10149750113487244,
                        0.05265438184142113,
                        -0.1910349726676941,
                        0.03249698132276535
                    ],
                    [
                        -0.12294552475214005,
                        -0.10888200253248215,
                        -0.12860652804374695,
                        0.017978498712182045,
                        -0.07532304525375366,
                        -0.05649854615330696,
                        0.2086329311132431,
                        0.11547650396823883,
                        -0.25457462668418884,
                        -0.15168096125125885,
                        0.16780933737754822,
                        0.000615646131336689,
                        0.21970362961292267,
                        -0.044379085302352905,
                        0.3686968982219696,
                        -0.013730783015489578,
                        0.03444591909646988,
                        0.0408230684697628,
                        -0.2684546411037445,
                        0.10434693098068237,
                        -0.19436141848564148,
                        -0.06503228843212128,
                        -0.1197822093963623,
                        -0.09323571622371674,
                        -0.031554125249385834,
                        0.2371181696653366,
                        0.18400698900222778,
                        -0.09841841459274292,
                        0.09987042844295502,
                        0.18752655386924744,
                        -0.15077750384807587,
                        -0.08378345519304276,
                        -0.06365872174501419,
                        0.2562771439552307,
                        -0.07339061796665192,
                        -0.03216198459267616,
                        -0.17638561129570007,
                        -0.013430076651275158,
                        0.06284013390541077,
                        -0.055187467485666275,
                        0.19739888608455658,
                        -0.037825845181941986,
                        0.009040506556630135,
                        0.2917516529560089,
                        0.009590622037649155,
                        -0.02677013725042343,
                        0.045095670968294144,
                        0.13676445186138153
                    ],
                    [
                        -0.22951523959636688,
                        -0.29345637559890747,
                        0.11793214082717896,
                        0.007846955209970474,
                        -0.0727706328034401,
                        0.1059684306383133,
                        -0.14199349284172058,
                        0.037299659103155136,
                        0.3251728415489197,
                        -0.11084821820259094,
                        -0.2281050682067871,
                        0.1954488605260849,
                        0.05640362948179245,
                        -0.11908259242773056,
                        0.10492449998855591,
                        0.06898204237222672,
                        0.017316145822405815,
                        -0.29130566120147705,
                        -0.18291924893856049,
                        0.07098938524723053,
                        -0.030558079481124878,
                        -0.05623809993267059,
                        -0.26419854164123535,
                        -0.23748324811458588,
                        -0.17326554656028748,
                        0.038280095905065536,
                        -0.004603490233421326,
                        -0.1978032886981964,
                        -0.002250479068607092,
                        -0.026165660470724106,
                        0.04651249945163727,
                        -0.02560712769627571,
                        0.009578553959727287,
                        -0.1410232037305832,
                        0.019740954041481018,
                        -0.028112810105085373,
                        0.1402280628681183,
                        0.014617694541811943,
                        0.1500130444765091,
                        0.0868617445230484,
                        -0.0637163370847702,
                        -0.15244753658771515,
                        -0.07292589545249939,
                        -0.20351392030715942,
                        -0.05633775517344475,
                        -0.2836257219314575,
                        0.02434808574616909,
                        0.10170280933380127
                    ],
                    [
                        0.1201523020863533,
                        0.03592928871512413,
                        -0.048959728330373764,
                        0.0918467566370964,
                        0.18458041548728943,
                        0.17085453867912292,
                        -0.010213915258646011,
                        0.12665632367134094,
                        0.047191914170980453,
                        -0.04008396342396736,
                        -0.10072729736566544,
                        -0.07411695271730423,
                        -0.33748161792755127,
                        -0.12372623383998871,
                        0.002630503848195076,
                        0.2683757543563843,
                        0.044208552688360214,
                        0.00687165092676878,
                        0.05151527002453804,
                        0.09109073877334595,
                        -0.1879497617483139,
                        -0.18777507543563843,
                        0.34033894538879395,
                        -0.0174757968634367,
                        -0.16167360544204712,
                        0.004539888352155685,
                        -0.008763168007135391,
                        -0.21026396751403809,
                        -0.08521443605422974,
                        0.012257539667189121,
                        -0.18694034218788147,
                        -0.029627053067088127,
                        -0.09273654222488403,
                        0.021130232140421867,
                        0.27948880195617676,
                        -0.09042185544967651,
                        -0.22643904387950897,
                        0.05130854621529579,
                        -0.22474858164787292,
                        0.14666154980659485,
                        0.05239994451403618,
                        -0.2956719994544983,
                        -0.18640562891960144,
                        0.09559288620948792,
                        -0.03552931547164917,
                        -0.04135522246360779,
                        0.03890637308359146,
                        -0.012804005295038223
                    ],
                    [
                        -0.13186046481132507,
                        0.1345057189464569,
                        -0.13782230019569397,
                        0.27813342213630676,
                        0.009593619033694267,
                        0.09488822519779205,
                        -0.029418058693408966,
                        0.015345379710197449,
                        0.25652435421943665,
                        0.12024315446615219,
                        0.05019977316260338,
                        0.02177714928984642,
                        0.22397592663764954,
                        -0.14796355366706848,
                        0.04131428152322769,
                        -0.35184359550476074,
                        -0.08444695919752121,
                        0.13693468272686005,
                        0.053684525191783905,
                        -0.28065261244773865,
                        0.024041350930929184,
                        -0.37070322036743164,
                        -0.16377127170562744,
                        0.11999063193798065,
                        -0.013540497049689293,
                        -0.20321524143218994,
                        -0.1363283395767212,
                        -0.003975525498390198,
                        -0.05095946788787842,
                        0.06403551995754242,
                        -0.07532116770744324,
                        0.02490263618528843,
                        0.09671071916818619,
                        -0.06431327760219574,
                        -0.047570034861564636,
                        0.026096142828464508,
                        -0.28753530979156494,
                        -0.03831864893436432,
                        0.062230728566646576,
                        -0.016627773642539978,
                        0.06715059280395508,
                        -0.2626160979270935,
                        -0.013329016976058483,
                        0.05756516754627228,
                        -0.05611211061477661,
                        0.02922336384654045,
                        -0.15035903453826904,
                        -0.0950225293636322
                    ],
                    [
                        -0.013369880616664886,
                        -0.026490099728107452,
                        -0.0030441598501056433,
                        -0.2117619812488556,
                        0.10193876922130585,
                        -0.05687614530324936,
                        0.1872209906578064,
                        0.2778167426586151,
                        0.15238666534423828,
                        0.16806785762310028,
                        -0.07793942093849182,
                        0.013650533743202686,
                        -0.012069294229149818,
                        0.08478307723999023,
                        0.12877607345581055,
                        0.11564267426729202,
                        0.2147810012102127,
                        0.018456751480698586,
                        0.11501108855009079,
                        0.09201399236917496,
                        -0.0055915373377501965,
                        -0.0950126051902771,
                        -0.08412423729896545,
                        -0.07917401194572449,
                        -0.10885569453239441,
                        0.19329583644866943,
                        -0.1486816704273224,
                        0.4675608277320862,
                        -0.0865878015756607,
                        0.18553556501865387,
                        -0.15005970001220703,
                        0.16506166756153107,
                        -0.23165327310562134,
                        -0.0029689136426895857,
                        -0.04462888836860657,
                        0.21278077363967896,
                        -0.10243722051382065,
                        0.006694138515740633,
                        0.22376184165477753,
                        0.14535555243492126,
                        -0.13385452330112457,
                        -0.029742591083049774,
                        -0.026318101212382317,
                        -0.11193391680717468,
                        -0.02539772540330887,
                        0.12069111317396164,
                        -0.026529807597398758,
                        -0.17489194869995117
                    ],
                    [
                        -0.06705033779144287,
                        0.10018865019083023,
                        0.19435395300388336,
                        0.06831558048725128,
                        0.0884554386138916,
                        -0.3111230134963989,
                        -0.10907962918281555,
                        0.3764386475086212,
                        0.009855428710579872,
                        0.16507847607135773,
                        -0.039053626358509064,
                        -0.011828755959868431,
                        -0.21047693490982056,
                        -0.13868404924869537,
                        0.10158323496580124,
                        -0.17591439187526703,
                        -0.1924441158771515,
                        0.056292738765478134,
                        0.17040827870368958,
                        0.05587516725063324,
                        0.01640392653644085,
                        -0.03630447015166283,
                        0.09938858449459076,
                        0.10143188387155533,
                        -0.12384825199842453,
                        0.09163342416286469,
                        0.22132961452007294,
                        0.0022548455744981766,
                        -0.0032623661682009697,
                        0.05183033645153046,
                        0.042992573231458664,
                        -0.2322176992893219,
                        -0.06239685043692589,
                        -0.021221471950411797,
                        -0.13687337934970856,
                        -0.3317430913448334,
                        -0.0606989860534668,
                        -0.07508846372365952,
                        0.1325545608997345,
                        -0.1249399408698082,
                        -0.16389870643615723,
                        0.08930998295545578,
                        0.17990106344223022,
                        -0.03809483349323273,
                        0.0758219063282013,
                        -0.27304017543792725,
                        0.024279996752738953,
                        -0.022213535383343697
                    ],
                    [
                        0.05848712846636772,
                        0.1299489140510559,
                        -0.17026503384113312,
                        0.010164727456867695,
                        -0.038941171020269394,
                        0.1133323609828949,
                        0.11559977382421494,
                        0.011783970519900322,
                        0.16929887235164642,
                        0.2146666944026947,
                        0.08590474724769592,
                        -0.09311181306838989,
                        -0.08299346268177032,
                        0.16725076735019684,
                        -0.3624137341976166,
                        0.005885155871510506,
                        0.2053016871213913,
                        0.02713063731789589,
                        0.05775216221809387,
                        0.0322943739593029,
                        -0.1314784437417984,
                        -0.3106222152709961,
                        -0.37363114953041077,
                        -0.1302308738231659,
                        -0.11185134947299957,
                        0.0228131040930748,
                        0.17077083885669708,
                        -0.05406396463513374,
                        -0.05513770878314972,
                        -0.06441320478916168,
                        0.04695843160152435,
                        -0.2536046504974365,
                        -0.16060757637023926,
                        0.11754030734300613,
                        0.056063175201416016,
                        -0.17101731896400452,
                        0.22165466845035553,
                        -0.08465539664030075,
                        -0.01608646847307682,
                        0.05294514819979668,
                        0.06325095146894455,
                        0.24977418780326843,
                        -0.04791254177689552,
                        0.14165298640727997,
                        -0.014042173512279987,
                        0.0025874669663608074,
                        0.011746669188141823,
                        0.09396985173225403
                    ],
                    [
                        0.13339826464653015,
                        0.08608082681894302,
                        -0.10418768972158432,
                        -0.0353938490152359,
                        0.0696948692202568,
                        -0.10502555221319199,
                        -0.061607807874679565,
                        -0.11085525155067444,
                        -0.0021908609196543694,
                        0.014814346097409725,
                        -0.12138456851243973,
                        -0.3404836356639862,
                        0.35750770568847656,
                        0.05431615188717842,
                        -0.029828649014234543,
                        0.014458905905485153,
                        -0.030628729611635208,
                        0.1459764689207077,
                        -0.09340925514698029,
                        0.07099147140979767,
                        0.08446770906448364,
                        -0.15898293256759644,
                        0.15454208850860596,
                        0.033101730048656464,
                        -0.08983977884054184,
                        0.1400999128818512,
                        -0.1863325536251068,
                        -0.32010796666145325,
                        0.03578246757388115,
                        0.024618126451969147,
                        0.11167364567518234,
                        0.061630457639694214,
                        -0.1607717126607895,
                        0.05966424569487572,
                        0.212272047996521,
                        0.19591081142425537,
                        -0.08653970807790756,
                        -0.16303448379039764,
                        0.21978110074996948,
                        -0.050886526703834534,
                        -0.2337936908006668,
                        0.17633795738220215,
                        -0.07308217883110046,
                        -0.10757866501808167,
                        0.14994259178638458,
                        -0.25452640652656555,
                        0.05893886089324951,
                        0.017370887100696564
                    ],
                    [
                        0.19893476366996765,
                        0.07519474625587463,
                        0.0010025324299931526,
                        0.1040196567773819,
                        -0.12187228351831436,
                        0.022152066230773926,
                        0.0019054608419537544,
                        0.1833399087190628,
                        -0.011421633884310722,
                        0.18924081325531006,
                        -0.07378117740154266,
                        -0.023464061319828033,
                        0.03340303152799606,
                        0.1335502415895462,
                        0.11576657742261887,
                        0.04291096329689026,
                        -0.12078864127397537,
                        0.07869485020637512,
                        -0.09648942202329636,
                        -0.21390587091445923,
                        0.03861376643180847,
                        0.039627522230148315,
                        -0.14259439706802368,
                        -0.04449648782610893,
                        0.18701811134815216,
                        0.4535977244377136,
                        -0.11801538616418839,
                        -0.06501838564872742,
                        -0.03338871896266937,
                        -0.19033248722553253,
                        -0.21511244773864746,
                        0.07518967986106873,
                        0.09642911702394485,
                        -0.0807732343673706,
                        -0.00034814421087503433,
                        -0.06189426779747009,
                        0.2046864777803421,
                        -0.29543983936309814,
                        -0.2576963007450104,
                        -0.08402717113494873,
                        0.06093422695994377,
                        -0.1688707023859024,
                        0.0030014365911483765,
                        -0.09456299990415573,
                        -0.1294405609369278,
                        -0.06505811959505081,
                        0.2307373732328415,
                        -0.17824913561344147
                    ]
                ],
                [
                    -0.25532954931259155,
                    0.857109785079956,
                    1.030651330947876,
                    0.9717510938644409,
                    0.8127724528312683,
                    1.000891089439392,
                    -0.558040976524353,
                    0.8859052062034607,
                    0.9047990441322327,
                    0.9494104981422424,
                    0.797765851020813,
                    0.7402628064155579,
                    0.04215992987155914,
                    0.04625030606985092,
                    0.028899190947413445,
                    0.06506959348917007,
                    -0.0134041802957654,
                    0.021105585619807243,
                    -0.06390676647424698,
                    -0.010262363590300083,
                    0.08700194209814072,
                    0.0058592138811945915,
                    -0.0379597507417202,
                    -0.01599922589957714,
                    0.09066802263259888,
                    -0.007629972882568836,
                    0.0007140371599234641,
                    -0.056107211858034134,
                    0.13268165290355682,
                    -0.015736469998955727,
                    0.22221873700618744,
                    -0.06418392062187195,
                    -0.020905913785099983,
                    -0.08703344315290451,
                    0.07381843030452728,
                    -0.1059965044260025,
                    -0.04258570820093155,
                    1.1137340068817139,
                    1.1713112592697144,
                    1.192572832107544,
                    1.0521527528762817,
                    1.2842848300933838,
                    -0.3862011134624481,
                    1.0649217367172241,
                    1.1346122026443481,
                    1.211218237876892,
                    0.985824704170227,
                    0.990108847618103
                ]
            ]
        },
        {
            "type": "dense",
            "activation": "",
            "shape": [
                null,
                null,
                1
            ],
            "weights": [
                [
                    [
                        0.7087172269821167
                    ],
                    [
                        -1.3887155055999756
                    ],
                    [
                        -1.4460214376449585
                    ],
                    [
                        1.2735081911087036
                    ],
                    [
                        0.9744490385055542
                    ],
                    [
                        -1.2416588068008423
                    ],
                    [
                        -0.8677652478218079
                    ],
                    [
                        1.3079746961593628
                    ],
                    [
                        0.9759206175804138
                    ],
                    [
                        1.1456831693649292
                    ],
                    [
                        -1.2106162309646606
                    ],
                    [
                        -1.6510999202728271
                    ]
                ],
                [
                    0.03844161331653595
                ]
            ]
        }
    ]
}