{
    "in_shape": [
        null,
        null,
        1
    ],
    "layers": [
        {
            "type": "conv1d",
            "activation": "",
            "shape": [
                null,
                null,
                36
            ],
            "kernel_size": [
                12
            ],
            "dilation": [
                1
            ],
            "groups": 1,
            "weights": [
                [
                    [
                        [
                            0.520101010799408,
                            -0.6732566952705383,
                            -0.1797247976064682,
                            -0.017220625653862953,
                            -0.4077294170856476,
                            -0.5014944076538086,
                            0.46506810188293457,
                            0.7382820248603821,
                            -0.3813420832157135,
                            -0.7089158892631531,
                            -0.40043607354164124,
                            -0.2054995596408844,
                            -0.6265405416488647,
                            -0.6574540138244629,
                            0.6704457402229309,
                            0.4890177249908447,
                            0.2608847916126251,
                            0.08175749331712723,
                            -0.37463992834091187,
                            -0.5016701817512512,
                            0.6564258337020874,
                            -0.6254168152809143,
                            0.7230702638626099,
                            0.5651435852050781,
                            -0.22749558091163635,
                            0.1755860596895218,
                            0.6550100445747375,
                            0.731217086315155,
                            -0.3788602650165558,
                            0.2783803939819336,
                            -0.8001561760902405,
                            -0.4403756260871887,
                            0.5663883686065674,
                            0.29861345887184143,
                            -0.5622264742851257,
                            0.1223108172416687
                        ]
                    ],
                    [
                        [
                            0.4217410683631897,
                            -0.46795007586479187,
                            -0.16185905039310455,
                            -0.015036056749522686,
                            -0.25403738021850586,
                            -0.17168602347373962,
                            0.4703323543071747,
                            0.5211573839187622,
                            -0.11705496907234192,
                            -0.31148144602775574,
                            -0.3050631284713745,
                            -0.15662242472171783,
                            -0.263196736574173,
                            -0.5990043878555298,
                            0.35464391112327576,
                            0.3494865596294403,
                            0.2631058394908905,
                            0.0028775108512490988,
                            -0.3121104836463928,
                            -0.4311644732952118,
                            0.6300160884857178,
                            -0.29231998324394226,
                            0.6312832236289978,
                            0.5841697454452515,
                            -0.317592591047287,
                            0.19687999784946442,
                            0.2993767261505127,
                            0.5614641308784485,
                            -0.10055118054151535,
                            0.09792610257863998,
                            -0.49336451292037964,
                            -0.300024151802063,
                            0.3332670032978058,
                            0.36953452229499817,
                            -0.35111182928085327,
                            0.01054399274289608
                        ]
                    ],
                    [
                        [
                            0.03546098619699478,
                            0.03346928954124451,
                            0.34896597266197205,
                            0.33125224709510803,
                            -0.08410269767045975,
                            -0.35442477464675903,
                            0.1212446540594101,
                            0.32059335708618164,
                            -0.8569181561470032,
                            -0.5311846733093262,
                            0.011608423665165901,
                            0.1656593382358551,
                            -0.21499064564704895,
                            -0.29061591625213623,
                            0.2465212643146515,
                            -0.09231287986040115,
                            0.034410033375024796,
                            0.31291839480400085,
                            -0.01690766215324402,
                            -0.4130484461784363,
                            -0.13479669392108917,
                            -0.5487461686134338,
                            -0.1341807246208191,
                            0.12785710394382477,
                            0.13165362179279327,
                            0.03768635168671608,
                            0.30718937516212463,
                            0.318619042634964,
                            -0.2988278269767761,
                            0.4132465720176697,
                            -0.46080338954925537,
                            -0.3655772805213928,
                            0.07011449337005615,
                            0.07861997932195663,
                            -0.5653511881828308,
                            0.2007438838481903
                        ]
                    ],
                    [
                        [
                            0.1738063246011734,
                            0.01692236214876175,
                            0.22516997158527374,
                            0.2035415917634964,
                            0.04861058294773102,
                            -0.3098955452442169,
                            0.07266563177108765,
                            0.18871909379959106,
                            -0.45716506242752075,
                            -0.4011518657207489,
                            -0.10138076543807983,
                            -0.010125190950930119,
                            -0.20829574763774872,
                            -0.0719907134771347,
                            0.16206848621368408,
                            0.05811757594347,
                            0.033917516469955444,
                            0.16885167360305786,
                            -0.0036662020720541477,
                            -0.22240597009658813,
                            -0.06503719091415405,
                            -0.45636868476867676,
                            -0.13106204569339752,
                            0.0876312404870987,
                            0.14408284425735474,
                            -0.008404552936553955,
                            0.3114472031593323,
                            0.007148525211960077,
                            -0.12465236335992813,
                            0.22262784838676453,
                            -0.24940185248851776,
                            -0.36864104866981506,
                            0.2694173753261566,
                            0.18800613284111023,
                            -0.4279947876930237,
                            0.18861617147922516
                        ]
                    ],
                    [
                        [
                            0.07320914417505264,
                            -0.1442960500717163,
                            -0.005002838559448719,
                            0.23941583931446075,
                            0.28238362073898315,
                            -0.24213604629039764,
                            0.24678923189640045,
                            0.19330742955207825,
                            -0.4791117310523987,
                            -0.19823288917541504,
                            -0.08973927050828934,
                            -0.17866314947605133,
                            -0.2915100157260895,
                            -0.11118967831134796,
                            0.3930037319660187,
                            -0.11445336043834686,
                            0.18251818418502808,
                            0.23727411031723022,
                            -0.02922801487147808,
                            -0.34667834639549255,
                            -0.03204044699668884,
                            -0.271498441696167,
                            -0.02012164331972599,
                            0.19166558980941772,
                            0.15061992406845093,
                            0.013455036096274853,
                            0.21746815741062164,
                            0.11770469695329666,
                            -0.07927864789962769,
                            0.18831686675548553,
                            -0.09670461714267731,
                            -0.2636805474758148,
                            0.25519922375679016,
                            0.075174979865551,
                            -0.14865651726722717,
                            0.18695026636123657
                        ]
                    ],
                    [
                        [
                            0.013355065137147903,
                            0.11983504891395569,
                            0.18006840348243713,
                            0.23221193253993988,
                            0.49486973881721497,
                            0.1282508373260498,
                            0.033179961144924164,
                            -0.010974780656397343,
                            0.17145617306232452,
                            0.07245365530252457,
                            -0.2535071074962616,
                            0.06278201192617416,
                            0.04545220360159874,
                            0.030538421124219894,
                            -0.14543166756629944,
                            -6.320130341919139e-05,
                            -0.02655424177646637,
                            -0.030721785500645638,
                            0.2614634335041046,
                            0.2679190933704376,
                            0.0679786428809166,
                            -0.18103723227977753,
                            0.12781549990177155,
                            0.03605452924966812,
                            0.10217983275651932,
                            -0.3227180242538452,
                            -0.21330921351909637,
                            0.43160751461982727,
                            -0.02587977796792984,
                            -0.11437622457742691,
                            0.20268002152442932,
                            0.5621477365493774,
                            -0.06899218261241913,
                            -0.04261530935764313,
                            -0.23014713823795319,
                            -0.037064079195261
                        ]
                    ],
                    [
                        [
                            0.01551031693816185,
                            0.027567513287067413,
                            0.05821268633008003,
                            -0.14589206874370575,
                            0.05920489877462387,
                            0.07185285538434982,
                            0.1749117374420166,
                            -0.09313930571079254,
                            0.13937579095363617,
                            0.18679289519786835,
                            0.006390343885868788,
                            0.10351040959358215,
                            0.012933916412293911,
                            0.008073363453149796,
                            -0.14187376201152802,
                            0.1253897100687027,
                            0.013651885092258453,
                            -0.09092205762863159,
                            0.1380954533815384,
                            0.23951952159404755,
                            0.0750984475016594,
                            0.01094240415841341,
                            0.23596777021884918,
                            -0.06601648777723312,
                            -0.11815045028924942,
                            -0.3150044083595276,
                            0.008304030634462833,
                            0.2463301718235016,
                            0.030124062672257423,
                            -0.06444321572780609,
                            0.18181012570858002,
                            0.24863046407699585,
                            0.07130016386508942,
                            -0.03263309225440025,
                            -0.18597868084907532,
                            -0.22507363557815552
                        ]
                    ],
                    [
                        [
                            -0.12723471224308014,
                            0.04845815896987915,
                            0.07317259907722473,
                            -0.023200681433081627,
                            0.2888443171977997,
                            0.12967471778392792,
                            0.1278146654367447,
                            -0.12058568745851517,
                            -0.013604868203401566,
                            0.032019373029470444,
                            0.04364718496799469,
                            0.13862663507461548,
                            0.12000574916601181,
                            0.17664967477321625,
                            -0.18513768911361694,
                            0.1899966597557068,
                            -0.006174995098263025,
                            -0.10244370251893997,
                            0.2528974115848541,
                            0.22392278909683228,
                            0.029872119426727295,
                            -0.06382408738136292,
                            -0.014696389436721802,
                            -0.0948786661028862,
                            -0.04928111657500267,
                            -0.17578719556331635,
                            -0.2288563847541809,
                            0.14824078977108002,
                            -0.003155810758471489,
                            -0.12314437329769135,
                            0.19402740895748138,
                            0.24827520549297333,
                            -0.1350303441286087,
                            -0.22315891087055206,
                            0.10808290541172028,
                            -0.16653700172901154
                        ]
                    ],
                    [
                        [
                            -0.24167148768901825,
                            0.260240763425827,
                            0.30760204792022705,
                            -0.1940586268901825,
                            0.4313945472240448,
                            0.14080965518951416,
                            -0.05528441071510315,
                            -0.14900211989879608,
                            -0.06478758901357651,
                            0.15292595326900482,
                            0.22060176730155945,
                            0.17955660820007324,
                            0.18749931454658508,
                            0.38180795311927795,
                            -0.37580400705337524,
                            0.0825963094830513,
                            -0.20089325308799744,
                            -0.07016591727733612,
                            0.19400344789028168,
                            0.2990013062953949,
                            -0.17515580356121063,
                            0.19611366093158722,
                            -0.23214152455329895,
                            -0.16419385373592377,
                            -0.10249827057123184,
                            -0.16822223365306854,
                            -0.3081982135772705,
                            -0.12266051769256592,
                            -0.05203072354197502,
                            0.12290553748607635,
                            0.38419008255004883,
                            0.4159110486507416,
                            -0.2911071181297302,
                            -0.18302953243255615,
                            0.11296396702528,
                            -0.06445735692977905
                        ]
                    ],
                    [
                        [
                            -0.2757215201854706,
                            0.29447492957115173,
                            -0.06583138555288315,
                            -0.3562750220298767,
                            -0.1251390129327774,
                            0.1480250358581543,
                            -0.10231616348028183,
                            -0.4127490520477295,
                            0.12489473819732666,
                            0.1744333803653717,
                            0.33883777260780334,
                            0.3860359489917755,
                            0.3746785819530487,
                            0.18974898755550385,
                            -0.04121711105108261,
                            0.2346271276473999,
                            -0.29376423358917236,
                            -0.27850043773651123,
                            0.3587646782398224,
                            0.2333628535270691,
                            -0.25797566771507263,
                            0.145955890417099,
                            -0.2397327572107315,
                            -0.17012770473957062,
                            -0.1058959886431694,
                            -0.2660001814365387,
                            -0.3378680348396301,
                            0.14656604826450348,
                            0.28624966740608215,
                            -0.31285661458969116,
                            0.08810389041900635,
                            0.011096948757767677,
                            -0.31793469190597534,
                            -0.04251372069120407,
                            0.11099068075418472,
                            -0.12413214147090912
                        ]
                    ],
                    [
                        [
                            -0.3492349684238434,
                            0.4129970967769623,
                            0.01604692079126835,
                            -0.5480498671531677,
                            0.09997362643480301,
                            0.057571180164813995,
                            -0.26610541343688965,
                            -0.4040064811706543,
                            0.05717151612043381,
                            0.3191419243812561,
                            0.21804219484329224,
                            0.25720492005348206,
                            0.44981709122657776,
                            0.3012040853500366,
                            -0.21098794043064117,
                            0.3856862485408783,
                            -0.33455702662467957,
                            -0.39294031262397766,
                            0.24328407645225525,
                            0.2901841700077057,
                            -0.3877315819263458,
                            0.08305802941322327,
                            -0.298855185508728,
                            -0.30344247817993164,
                            -0.07440225034952164,
                            -0.3695276379585266,
                            -0.2976570129394531,
                            -0.07194455713033676,
                            0.21682260930538177,
                            -0.45945560932159424,
                            0.07359635829925537,
                            0.15615519881248474,
                            -0.35084155201911926,
                            -0.19982896745204926,
                            0.07284602522850037,
                            -0.06776118278503418
                        ]
                    ],
                    [
                        [
                            -0.3050713539123535,
                            0.4603102505207062,
                            -0.0646447092294693,
                            -0.44457900524139404,
                            0.17836116254329681,
                            0.11207546293735504,
                            -0.21952754259109497,
                            -0.47261643409729004,
                            0.3218553960323334,
                            0.38019371032714844,
                            0.3298645615577698,
                            0.43994057178497314,
                            0.4865350127220154,
                            0.263001948595047,
                            -0.3149506449699402,
                            0.20726092159748077,
                            -0.22526928782463074,
                            -0.35922691226005554,
                            0.3930688500404358,
                            0.339822381734848,
                            -0.39915794134140015,
                            0.2842356860637665,
                            -0.39433127641677856,
                            -0.3608168363571167,
                            -0.09221331030130386,
                            -0.4436233639717102,
                            -0.37981611490249634,
                            -0.22497686743736267,
                            0.34461361169815063,
                            -0.4020801782608032,
                            0.2910708487033844,
                            0.24965031445026398,
                            -0.2391718626022339,
                            -0.12118571996688843,
                            0.15272900462150574,
                            -0.1927030384540558
                        ]
                    ]
                ],
                [
                    0.00808347761631012,
                    -0.002219452755525708,
                    -0.08177103847265244,
                    0.029636885970830917,
                    -0.12003238499164581,
                    -0.04959794878959656,
                    -0.11463364958763123,
                    -0.03355884179472923,
                    -0.11444828659296036,
                    -0.02964833937585354,
                    0.011053097434341908,
                    -0.01263880543410778,
                    0.010513350367546082,
                    -0.04932171478867531,
                    0.00747606111690402,
                    -0.0053909593261778355,
                    -0.005757179111242294,
                    0.00873890332877636,
                    -0.01623464748263359,
                    -0.0334542915225029,
                    -0.03074096143245697,
                    -0.015897072851657867,
                    -0.07688381522893906,
                    0.016126995906233788,
                    0.03562946245074272,
                    0.04978939890861511,
                    -0.005587468855082989,
                    -0.03366462513804436,
                    -0.014032185077667236,
                    0.03815506026148796,
                    -0.02650131843984127,
                    -0.12195870280265808,
                    -0.019725751131772995,
                    -0.035532135516405106,
                    0.009318944998085499,
                    0.06224045902490616
                ]
            ]
        },
        {
            "type": "conv1d",
            "activation": "",
            "shape": [
                null,
                null,
                36
            ],
            "kernel_size": [
                3
            ],
            "dilation": [
                1
            ],
            "groups": 1,
            "weights": [
                [
                    [
                        [
                            0.3703608512878418,
                            0.07158209383487701,
                            -0.08895998448133469,
                            -0.1801118701696396,
                            -0.1456388384103775,
                            -0.0999692976474762,
                            0.058405160903930664,
                            -0.11443517357110977,
                            0.012751063331961632,
                            0.11998356878757477,
                            -0.22233954071998596,
                            0.0668497234582901,
                            0.056834589689970016,
                            0.08044727146625519,
                            -0.18021072447299957,
                            0.10311572998762131,
                            -0.06703034043312073,
                            -0.07121885567903519,
                            -0.12928979098796844,
                            0.3047579824924469,
                            0.12067189812660217,
                            -0.21990734338760376,
                            0.1231728196144104,
                            -0.26986774802207947,
                            -0.16102193295955658,
                            -0.1998627632856369,
                            -0.04035333916544914,
                            -0.18567457795143127,
                            -0.19035787880420685,
                            -0.10745694488286972,
                            -0.18463116884231567,
                            0.21596336364746094,
                            0.29565659165382385,
                            -0.13984531164169312,
                            0.05863222852349281,
                            -0.37944337725639343
                        ],
                        [
                            -0.23816078901290894,
                            0.014828563667833805,
                            0.10338673740625381,
                            -0.1715904176235199,
                            0.10727410018444061,
                            0.10624135285615921,
                            -0.25653836131095886,
                            0.29402583837509155,
                            -0.2110106647014618,
                            0.2706334590911865,
                            0.18938247859477997,
                            0.19324566423892975,
                            0.10173146426677704,
                            -0.17814943194389343,
                            0.21256831288337708,
                            -0.19561879336833954,
                            0.2844943702220917,
                            -0.049047406762838364,
                            0.23623931407928467,
                            -0.23420998454093933,
                            -0.31586432456970215,
                            0.21486490964889526,
                            -0.5277553796768188,
                            0.0909619852900505,
                            0.08505865931510925,
                            0.08527380228042603,
                            0.003818334313109517,
                            0.08409115672111511,
                            0.09112244099378586,
                            0.11774756759405136,
                            -0.01628955453634262,
                            0.11595059186220169,
                            0.07314051687717438,
                            -0.11901825666427612,
                            0.17389808595180511,
                            0.15601253509521484
                        ],
                        [
                            -0.1362813115119934,
                            -0.20995663106441498,
                            0.07542512565851212,
                            -0.192284494638443,
                            -0.3892614245414734,
                            0.024948233738541603,
                            0.11636170744895935,
                            -0.129008948802948,
                            -0.2538067102432251,
                            -0.07764851301908493,
                            0.023599179461598396,
                            0.18941031396389008,
                            -0.06734875589609146,
                            -0.31237778067588806,
                            -0.3728140890598297,
                            -0.10054794698953629,
                            0.05295519158244133,
                            0.12557601928710938,
                            0.10691835731267929,
                            -0.07774505764245987,
                            -0.028865298256278038,
                            0.39384135603904724,
                            -0.46058788895606995,
                            -0.3023994565010071,
                            0.15658272802829742,
                            0.04598676785826683,
                            0.3262762725353241,
                            0.09743236750364304,
                            0.17356979846954346,
                            -0.20792712271213531,
                            -0.3716503083705902,
                            0.09555099159479141,
                            -0.408229798078537,
                            -0.032157544046640396,
                            -0.2845921218395233,
                            -0.11516757309436798
                        ],
                        [
                            -0.21645021438598633,
                            0.08435703068971634,
                            -0.2671528160572052,
                            -0.1490706205368042,
                            0.2969680428504944,
                            0.05650727450847626,
                            -0.20772477984428406,
                            -0.009008894674479961,
                            -0.018635066226124763,
                            0.011116729117929935,
                            -0.037093013525009155,
                            0.27831199765205383,
                            0.34048742055892944,
                            -0.01288769394159317,
                            -0.01284579187631607,
                            0.19614234566688538,
                            0.262067973613739,
                            0.009473945014178753,
                            -0.01284387893974781,
                            -0.11790888756513596,
                            -0.0864855945110321,
                            0.0320693664252758,
                            -0.03100077621638775,
                            0.0721965804696083,
                            -0.055202316492795944,
                            0.011946175247430801,
                            0.11704456806182861,
                            0.16603907942771912,
                            -0.10920741409063339,
                            -0.05258442461490631,
                            -0.08028168976306915,
                            -0.08286549150943756,
                            0.010214635170996189,
                            -0.2423485815525055,
                            -0.20266935229301453,
                            -0.022954503074288368
                        ],
                        [
                            0.2400268167257309,
                            0.10644817352294922,
                            -0.17612403631210327,
                            0.13930614292621613,
                            -0.46435627341270447,
                            -0.030580125749111176,
                            0.11994216591119766,
                            -0.2553553581237793,
                            -0.508344829082489,
                            -0.23396165668964386,
                            0.02802201919257641,
                            -0.31356456875801086,
                            0.16893237829208374,
                            -0.043685052543878555,
                            -0.2757583558559418,
                            -0.22363907098770142,
                            0.06678731739521027,
                            0.17904339730739594,
                            0.1544034779071808,
                            -0.19210395216941833,
                            -0.08031979203224182,
                            0.2832491397857666,
                            -0.04840832203626633,
                            -0.045049577951431274,
                            0.3803335428237915,
                            -0.3386496901512146,
                            -0.3400420844554901,
                            0.060424044728279114,
                            0.018235521391034126,
                            -0.2733491361141205,
                            -0.0858444944024086,
                            0.14121878147125244,
                            -0.5272454023361206,
                            -0.028296757489442825,
                            -0.42138323187828064,
                            0.10898054391145706
                        ],
                        [
                            0.1610570251941681,
                            0.1024373471736908,
                            0.06526734679937363,
                            0.08405471593141556,
                            -0.319167822599411,
                            -0.07932352274656296,
                            -0.006088115740567446,
                            0.0058045173063874245,
                            -0.13541671633720398,
                            -0.285614013671875,
                            -0.1926286667585373,
                            -0.09925851970911026,
                            0.2823410928249359,
                            0.09638601541519165,
                            0.07675294578075409,
                            -0.30748236179351807,
                            0.15970446169376373,
                            -0.10300470888614655,
                            0.11997134238481522,
                            -0.005940880160778761,
                            -0.23500528931617737,
                            0.17916113138198853,
                            0.23573774099349976,
                            -0.1677636206150055,
                            0.40760764479637146,
                            -0.23778606951236725,
                            -0.30377206206321716,
                            0.0679037794470787,
                            0.10392151772975922,
                            -0.1466771960258484,
                            0.07011181116104126,
                            -0.2156766951084137,
                            -0.0640927329659462,
                            -0.2661532759666443,
                            -0.3457154631614685,
                            -0.1440609246492386
                        ],
                        [
                            0.4931142032146454,
                            0.06364649534225464,
                            -0.09267059713602066,
                            0.21068601310253143,
                            0.07096688449382782,
                            -0.1322639137506485,
                            0.01379227451980114,
                            -0.4241023063659668,
                            -0.09501802176237106,
                            0.030429735779762268,
                            -0.17160801589488983,
                            -0.23427022993564606,
                            -0.2576090097427368,
                            0.21380992233753204,
                            -0.02454747073352337,
                            0.005879102274775505,
                            -0.2336389720439911,
                            0.2123250514268875,
                            0.09961361438035965,
                            -0.24100418388843536,
                            0.08735714107751846,
                            -0.4547313451766968,
                            0.08709671348333359,
                            0.09555644541978836,
                            -0.3710287809371948,
                            -0.002932911738753319,
                            0.06802202761173248,
                            -0.12920601665973663,
                            -0.23243749141693115,
                            -0.21309714019298553,
                            0.12896893918514252,
                            -0.04818839952349663,
                            -0.19992615282535553,
                            0.24392016232013702,
                            -0.02890360914170742,
                            -0.04362143576145172
                        ],
                        [
                            0.2602362036705017,
                            -0.3393430709838867,
                            -0.13953542709350586,
                            0.03638630360364914,
                            0.14011768996715546,
                            -0.15180552005767822,
                            0.2046743929386139,
                            -0.4187057614326477,
                            -0.043626606464385986,
                            0.1485648900270462,
                            -0.3313460946083069,
                            -0.032874833792448044,
                            -0.3327721357345581,
                            0.20758892595767975,
                            0.32576438784599304,
                            0.27106860280036926,
                            -0.2941494882106781,
                            0.18263624608516693,
                            0.1334904432296753,
                            -0.1257619559764862,
                            0.31660887598991394,
                            -0.29940783977508545,
                            0.13237997889518738,
                            0.08297313749790192,
                            -0.3845647871494293,
                            0.2868366539478302,
                            0.2221771478652954,
                            -0.30914655327796936,
                            -0.1861693114042282,
                            0.14243100583553314,
                            -0.12547416985034943,
                            -0.06162306293845177,
                            -0.2391548454761505,
                            0.32206636667251587,
                            -0.07358211278915405,
                            -0.06137866899371147
                        ],
                        [
                            0.38573867082595825,
                            0.2948402762413025,
                            -0.11987891048192978,
                            0.03211044520139694,
                            -0.19116881489753723,
                            -0.280666708946228,
                            0.28151991963386536,
                            -0.12846273183822632,
                            -0.012720020487904549,
                            -0.4442492425441742,
                            -0.29739102721214294,
                            -0.19282250106334686,
                            0.464708149433136,
                            0.110855832695961,
                            -0.05662689357995987,
                            -0.17482247948646545,
                            0.10230380296707153,
                            -0.1620357483625412,
                            -0.29125455021858215,
                            -0.20395419001579285,
                            -0.3253902196884155,
                            0.2864704728126526,
                            0.17107552289962769,
                            -0.45000308752059937,
                            0.30118322372436523,
                            -0.15773236751556396,
                            -0.047022946178913116,
                            0.024049315601587296,
                            -0.15672776103019714,
                            -0.08799239248037338,
                            0.10746505856513977,
                            -0.031626537442207336,
                            -0.1168355941772461,
                            -0.19100673496723175,
                            -0.30955126881599426,
                            -0.16431482136249542
                        ],
                        [
                            0.08243093639612198,
                            0.18137483298778534,
                            -0.37142884731292725,
                            -0.006337007042020559,
                            -0.3518509268760681,
                            -0.28155195713043213,
                            -0.07383604347705841,
                            -0.08598634600639343,
                            0.038311541080474854,
                            -0.4491223096847534,
                            0.027831081300973892,
                            -0.15234364569187164,
                            0.5527735352516174,
                            -0.1204829066991806,
                            0.06638255715370178,
                            -0.16892319917678833,
                            0.3959527909755707,
                            -0.08258511871099472,
                            0.0637790709733963,
                            -0.21901607513427734,
                            -0.41334068775177,
                            0.43920600414276123,
                            0.05197293683886528,
                            -0.423041969537735,
                            0.6308049559593201,
                            -0.16174541413784027,
                            -0.04607924818992615,
                            0.09792202711105347,
                            -0.14293089509010315,
                            -0.14132565259933472,
                            0.17651669681072235,
                            0.03905031085014343,
                            -0.12612977623939514,
                            -0.2653864026069641,
                            -0.16786567866802216,
                            -0.011728145182132721
                        ],
                        [
                            -0.30656856298446655,
                            -0.26701492071151733,
                            -0.034860800951719284,
                            0.008454490453004837,
                            -0.05434383824467659,
                            0.02187112718820572,
                            -0.2102707326412201,
                            0.1484205275774002,
                            -0.11455124616622925,
                            0.22280248999595642,
                            0.47861146926879883,
                            0.01960902102291584,
                            0.020986460149288177,
                            -0.24976268410682678,
                            0.016954395920038223,
                            -0.15123406052589417,
                            -0.06624359637498856,
                            0.007540955673903227,
                            0.29513755440711975,
                            -0.08008065074682236,
                            0.01972760446369648,
                            -0.11613494902849197,
                            -0.09122586250305176,
                            0.20965005457401276,
                            0.021594997495412827,
                            0.28956738114356995,
                            -0.07135713845491409,
                            0.10429450869560242,
                            0.3171694278717041,
                            0.25724509358406067,
                            0.13515311479568481,
                            -0.026440881192684174,
                            -0.13319723308086395,
                            0.22782385349273682,
                            0.04619651287794113,
                            0.10200471431016922
                        ],
                        [
                            -0.41016826033592224,
                            -0.2527031898498535,
                            0.12212518602609634,
                            -0.0748867616057396,
                            0.09762663394212723,
                            0.07591795176267624,
                            0.025709999725222588,
                            0.2113601416349411,
                            -0.11147332191467285,
                            0.13076257705688477,
                            0.3102490305900574,
                            0.09099972248077393,
                            -0.2032606601715088,
                            -0.19181083142757416,
                            0.06452536582946777,
                            -0.033309463411569595,
                            -0.023328742012381554,
                            0.1595490574836731,
                            0.2892073690891266,
                            -0.006750240456312895,
                            -0.0025321422144770622,
                            0.09451723843812943,
                            -0.38562649488449097,
                            0.21320053935050964,
                            -0.30369675159454346,
                            0.09454917907714844,
                            -0.19561730325222015,
                            -0.18535658717155457,
                            0.188503697514534,
                            0.17619863152503967,
                            -0.27849212288856506,
                            0.0772790014743805,
                            -0.03264543414115906,
                            0.14926201105117798,
                            0.12501393258571625,
                            0.06721611320972443
                        ],
                        [
                            0.04049249738454819,
                            0.042931344360113144,
                            0.012143697589635849,
                            0.07403571903705597,
                            -0.20529493689537048,
                            0.19538992643356323,
                            -0.10250239074230194,
                            0.35239553451538086,
                            0.00826147198677063,
                            0.015601289458572865,
                            0.35280081629753113,
                            0.3446345031261444,
                            0.10165318101644516,
                            -0.15430797636508942,
                            -0.07317478209733963,
                            -0.3010478913784027,
                            0.026713261380791664,
                            -0.1890505701303482,
                            -0.03354417160153389,
                            0.06307252496480942,
                            -0.2022453397512436,
                            0.37722083926200867,
                            -0.32269930839538574,
                            0.03319700062274933,
                            0.23432126641273499,
                            0.23794840276241302,
                            -0.09144791215658188,
                            0.238286092877388,
                            0.08769501745700836,
                            -0.13329976797103882,
                            0.18234162032604218,
                            0.04459789767861366,
                            -0.021299730986356735,
                            -0.11138319224119186,
                            0.3534568250179291,
                            0.21862933039665222
                        ],
                        [
                            -0.03229089826345444,
                            0.11902452260255814,
                            -0.1429966688156128,
                            0.3893023729324341,
                            -0.32265761494636536,
                            -0.16427862644195557,
                            -0.029654353857040405,
                            -0.017212651669979095,
                            -0.3187459111213684,
                            -0.20368267595767975,
                            -0.010351513512432575,
                            0.11144677549600601,
                            0.5532044172286987,
                            -0.05314606800675392,
                            0.2904006540775299,
                            -0.35583290457725525,
                            0.03285366669297218,
                            -0.07879588752985,
                            0.04043736681342125,
                            -0.48406365513801575,
                            -0.408284455537796,
                            0.43647968769073486,
                            -0.04027436301112175,
                            0.024533700197935104,
                            0.6904891133308411,
                            -0.11758420616388321,
                            -0.4271516501903534,
                            0.3819676637649536,
                            0.15270529687404633,
                            -0.2150512933731079,
                            0.011316178366541862,
                            0.058451589196920395,
                            -0.2417372465133667,
                            -0.22533975541591644,
                            -0.22027549147605896,
                            0.11621834337711334
                        ],
                        [
                            0.19564318656921387,
                            -0.2914941608905792,
                            -0.17229972779750824,
                            0.16220983862876892,
                            0.3159412741661072,
                            -0.10174861550331116,
                            -0.04926414042711258,
                            -0.2257574051618576,
                            -0.07494479417800903,
                            -0.11639385670423508,
                            -0.024720393121242523,
                            -0.28305599093437195,
                            -0.30021196603775024,
                            0.14435386657714844,
                            0.15651294589042664,
                            0.32280972599983215,
                            -0.4004228115081787,
                            -0.07896492630243301,
                            0.31964266300201416,
                            -0.09875453263521194,
                            0.08610575646162033,
                            -0.4295848309993744,
                            0.04576455056667328,
                            -0.12800279259681702,
                            -0.3031867742538452,
                            -0.014367051422595978,
                            0.2636180818080902,
                            -0.3013913035392761,
                            -0.2537773549556732,
                            0.13168975710868835,
                            0.006719952914863825,
                            -0.11314021050930023,
                            0.372180700302124,
                            0.17228694260120392,
                            0.2403714656829834,
                            0.19445589184761047
                        ],
                        [
                            0.15775512158870697,
                            -0.4654231667518616,
                            0.14418849349021912,
                            0.08032862097024918,
                            0.12566936016082764,
                            0.2443145513534546,
                            -0.2378242164850235,
                            -0.00047417281894013286,
                            0.02191643975675106,
                            0.19957128167152405,
                            0.2605619430541992,
                            -0.2164706587791443,
                            -0.1867772489786148,
                            -0.10380569845438004,
                            -0.10035447031259537,
                            0.09009215980768204,
                            -0.4835140109062195,
                            -0.18125207722187042,
                            0.04192760959267616,
                            0.21219603717327118,
                            0.18291984498500824,
                            -0.23334690928459167,
                            -0.10318228602409363,
                            0.2461613118648529,
                            -0.43918734788894653,
                            0.12754614651203156,
                            -0.09234960377216339,
                            -0.2913993000984192,
                            -0.007199551444500685,
                            0.12564364075660706,
                            -0.25372031331062317,
                            0.14733672142028809,
                            0.14422394335269928,
                            0.13187995553016663,
                            0.09528567641973495,
                            0.004593811929225922
                        ],
                        [
                            0.22476930916309357,
                            -0.13516229391098022,
                            -0.0025264567229896784,
                            -0.05716150626540184,
                            -0.11753962188959122,
                            -0.16706281900405884,
                            0.006029106676578522,
                            -0.30795788764953613,
                            -0.010758176445960999,
                            -0.04605336859822273,
                            -0.14605671167373657,
                            -0.21285086870193481,
                            -0.017590777948498726,
                            0.35661906003952026,
                            0.031255654990673065,
                            -0.0737655907869339,
                            -0.0377923808991909,
                            0.10589750111103058,
                            -0.16129432618618011,
                            -0.06201357766985893,
                            -0.04238617792725563,
                            -0.11634311825037003,
                            0.30193305015563965,
                            -0.448991596698761,
                            -0.07211223244667053,
                            -0.10864091664552689,
                            -0.03718315437436104,
                            0.06495927274227142,
                            -0.19267268478870392,
                            0.05563078820705414,
                            0.02170255035161972,
                            0.02344612032175064,
                            -0.19232890009880066,
                            -0.05561831220984459,
                            -0.1513303965330124,
                            -0.04580467939376831
                        ],
                        [
                            -0.11858589202165604,
                            0.23789918422698975,
                            -0.14253485202789307,
                            0.12108397483825684,
                            0.16297027468681335,
                            -0.3065733313560486,
                            0.09541451930999756,
                            -0.12208018451929092,
                            -0.08151988685131073,
                            -0.22733260691165924,
                            -0.19788426160812378,
                            -0.00174613855779171,
                            0.3232179582118988,
                            0.25438910722732544,
                            0.1268090158700943,
                            0.004269866272807121,
                            -0.04850953444838524,
                            -0.0726868137717247,
                            0.08357606828212738,
                            0.2506652772426605,
                            -0.16148574650287628,
                            0.056589219719171524,
                            0.23236900568008423,
                            -0.22051510214805603,
                            0.2554682493209839,
                            -0.2339305877685547,
                            -0.09054731577634811,
                            0.2857281267642975,
                            -0.10826569050550461,
                            -0.03668896481394768,
                            0.04243003949522972,
                            -0.1198607087135315,
                            0.055839382112026215,
                            -0.16112150251865387,
                            -0.23852288722991943,
                            -0.06833545863628387
                        ],
                        [
                            -0.19671522080898285,
                            -0.28798583149909973,
                            -0.0804390013217926,
                            0.033477865159511566,
                            -0.2467479556798935,
                            0.12227616459131241,
                            -0.30038806796073914,
                            -0.10259683430194855,
                            -0.20504876971244812,
                            0.1578143835067749,
                            0.3479950428009033,
                            0.03802948445081711,
                            0.046427659690380096,
                            -0.13080589473247528,
                            0.07744444906711578,
                            -0.1010998785495758,
                            -0.013297200202941895,
                            0.15077292919158936,
                            0.04401816055178642,
                            -0.27200302481651306,
                            -0.046045538038015366,
                            -0.013810842297971249,
                            -0.21508145332336426,
                            0.23813466727733612,
                            -0.011116581968963146,
                            0.0929272323846817,
                            0.19277608394622803,
                            -0.1454477310180664,
                            0.10946330428123474,
                            0.05316804349422455,
                            -0.2432883083820343,
                            -0.017758887261152267,
                            -0.1658884733915329,
                            -0.007107425946742296,
                            0.12398949265480042,
                            0.09645719826221466
                        ],
                        [
                            0.12069419771432877,
                            -0.1372072696685791,
                            0.13749542832374573,
                            -0.11709565669298172,
                            -0.17174653708934784,
                            0.015745677053928375,
                            -0.13037505745887756,
                            0.07819951325654984,
                            0.008588999509811401,
                            -0.13543875515460968,
                            0.14225496351718903,
                            -0.08169131726026535,
                            0.11996930092573166,
                            0.03976571559906006,
                            0.1464424580335617,
                            -0.3062923848628998,
                            0.06341294199228287,
                            -0.09764353930950165,
                            -0.2699138820171356,
                            0.07320574671030045,
                            -0.25443926453590393,
                            0.42144638299942017,
                            -0.20004861056804657,
                            0.0362020805478096,
                            0.32058319449424744,
                            -0.050886642187833786,
                            -0.15547460317611694,
                            0.08062788099050522,
                            0.13590969145298004,
                            -0.26504215598106384,
                            0.18626679480075836,
                            0.01495090126991272,
                            -0.05299112945795059,
                            -0.20301173627376556,
                            0.0659789964556694,
                            0.031263090670108795
                        ],
                        [
                            0.29521891474723816,
                            0.01896357536315918,
                            0.005953934974968433,
                            -0.10956067591905594,
                            0.0729902908205986,
                            -0.12021343410015106,
                            0.20115716755390167,
                            -0.05920521914958954,
                            0.21179993450641632,
                            0.012454473413527012,
                            -0.24412669241428375,
                            -0.25883907079696655,
                            -0.3950759172439575,
                            0.10258439183235168,
                            -0.14888469874858856,
                            -0.13597896695137024,
                            -0.20659135282039642,
                            0.043603040277957916,
                            -0.09695789963006973,
                            0.22914516925811768,
                            0.34549304842948914,
                            -0.004123187158256769,
                            0.2601694166660309,
                            -0.16145962476730347,
                            -0.4447614848613739,
                            -0.07608303427696228,
                            -0.018567290157079697,
                            -0.1838732212781906,
                            -0.16427397727966309,
                            -0.19220849871635437,
                            -0.013085436075925827,
                            -0.03795836865901947,
                            -0.04662885144352913,
                            0.15970809757709503,
                            -0.022654082626104355,
                            0.1454607993364334
                        ],
                        [
                            0.17702949047088623,
                            0.098105788230896,
                            -0.05370176583528519,
                            -0.22213853895664215,
                            -0.052426863461732864,
                            -0.390200138092041,
                            0.19339774549007416,
                            0.11842474341392517,
                            0.04094691202044487,
                            -0.5953629612922668,
                            0.06908322125673294,
                            -0.18007026612758636,
                            0.5326882600784302,
                            -0.08197842538356781,
                            0.025482553988695145,
                            -0.17068791389465332,
                            0.3818877339363098,
                            -0.11116384714841843,
                            -0.17855817079544067,
                            -0.08060235530138016,
                            -0.43836531043052673,
                            0.4396999180316925,
                            0.15186502039432526,
                            -0.4740971028804779,
                            0.32701438665390015,
                            -0.3431522846221924,
                            -0.08750184625387192,
                            -0.039310626685619354,
                            0.14171448349952698,
                            -0.2224113941192627,
                            0.2788088321685791,
                            -0.052621304988861084,
                            0.1116914302110672,
                            0.041885484009981155,
                            -0.03952770680189133,
                            -0.228484109044075
                        ],
                        [
                            0.48504915833473206,
                            -0.14439886808395386,
                            -0.22020363807678223,
                            0.04676581546664238,
                            0.17075860500335693,
                            0.06359536200761795,
                            0.035744503140449524,
                            -0.18325147032737732,
                            -0.07952971756458282,
                            -0.25075894594192505,
                            -0.32723209261894226,
                            -0.1876281052827835,
                            -0.05488899350166321,
                            0.2700456976890564,
                            0.18517936766147614,
                            0.1901865005493164,
                            -0.17961791157722473,
                            0.025058770552277565,
                            -0.057278476655483246,
                            0.0900840014219284,
                            0.29602763056755066,
                            -0.2432173490524292,
                            0.001971587771549821,
                            -0.09172908961772919,
                            -0.29808443784713745,
                            0.03576785698533058,
                            0.01987627148628235,
                            -0.12671701610088348,
                            -0.22842226922512054,
                            -0.049044545739889145,
                            -0.19002291560173035,
                            0.0010865814983844757,
                            0.1588287204504013,
                            0.04735294729471207,
                            -0.10060330480337143,
                            0.3004262447357178
                        ],
                        [
                            0.0669720247387886,
                            -0.5061944127082825,
                            -0.12954212725162506,
                            -0.23306669294834137,
                            0.1171509250998497,
                            0.058111149817705154,
                            -0.1282965987920761,
                            0.0353197380900383,
                            0.05955487862229347,
                            0.10369303077459335,
                            -0.17921866476535797,
                            -0.09561827033758163,
                            -0.3756925165653229,
                            -0.0690896138548851,
                            -0.22651457786560059,
                            0.2247837483882904,
                            -0.10603027045726776,
                            0.3443560302257538,
                            0.02988654375076294,
                            0.06664847582578659,
                            0.31738948822021484,
                            -0.4716690182685852,
                            0.09202441573143005,
                            -0.0230347141623497,
                            -0.4829610288143158,
                            0.2676086723804474,
                            0.4480621814727783,
                            -0.3740062415599823,
                            -0.11514060199260712,
                            0.10853620618581772,
                            -0.2303648144006729,
                            -0.0914040356874466,
                            0.005236961878836155,
                            0.39410829544067383,
                            0.21217824518680573,
                            -0.06727202236652374
                        ],
                        [
                            0.05367882922291756,
                            0.28940126299858093,
                            -0.09459976851940155,
                            0.23015211522579193,
                            -0.07134632021188736,
                            -0.12167476117610931,
                            -0.08419931679964066,
                            -0.00029585984884761274,
                            -0.22809140384197235,
                            0.19179974496364594,
                            0.015266195870935917,
                            0.25026988983154297,
                            0.30197545886039734,
                            0.12987160682678223,
                            -0.10229644179344177,
                            -0.013668994419276714,
                            0.20423509180545807,
                            0.20835071802139282,
                            0.1322852522134781,
                            -0.22621379792690277,
                            -0.21272477507591248,
                            -0.10974503308534622,
                            -0.0035774377174675465,
                            0.04134099930524826,
                            0.3543733060359955,
                            0.003953977487981319,
                            -0.09168131649494171,
                            0.1190333291888237,
                            0.15305683016777039,
                            -0.058880191296339035,
                            0.25151902437210083,
                            -0.0854480043053627,
                            -0.3240514099597931,
                            -0.010409211739897728,
                            0.001800496131181717,
                            -0.01791178248822689
                        ],
                        [
                            -0.015530250035226345,
                            0.10325989872217178,
                            -0.015344512648880482,
                            -0.19965393841266632,
                            0.2446540743112564,
                            -0.22565500438213348,
                            0.07549279928207397,
                            -0.011600367724895477,
                            0.19838057458400726,
                            -0.14705216884613037,
                            -0.14121267199516296,
                            0.013294707983732224,
                            -0.02686839923262596,
                            -0.0047027189284563065,
                            -0.16546981036663055,
                            0.054676603525877,
                            0.1421157717704773,
                            -0.11914395540952682,
                            -0.16734029352664948,
                            0.1510043889284134,
                            -0.08980896323919296,
                            0.08422078937292099,
                            0.2867802083492279,
                            -0.33060330152511597,
                            0.2737635672092438,
                            0.05726011469960213,
                            0.12052951008081436,
                            -0.018935907632112503,
                            -0.26189151406288147,
                            0.02415625751018524,
                            0.2494240254163742,
                            -0.28699082136154175,
                            0.05631912127137184,
                            -0.03058638796210289,
                            -0.1442970633506775,
                            -0.16669434309005737
                        ],
                        [
                            0.02643837220966816,
                            -0.1922396868467331,
                            -0.03981766104698181,
                            0.03185359388589859,
                            0.1091693639755249,
                            -0.2073894441127777,
                            0.1346282958984375,
                            -0.22490160167217255,
                            -0.05791659653186798,
                            -0.010466638952493668,
                            -0.3606436550617218,
                            -0.016790568828582764,
                            -0.2696685194969177,
                            0.2059762179851532,
                            -0.14493641257286072,
                            0.23185160756111145,
                            -0.21007698774337769,
                            0.05496789515018463,
                            0.3054080903530121,
                            -0.03213055431842804,
                            0.25242218375205994,
                            -0.4356466233730316,
                            0.02500818856060505,
                            -0.27986931800842285,
                            -0.45007988810539246,
                            0.044216930866241455,
                            0.13947194814682007,
                            -0.04496316984295845,
                            -0.16033439338207245,
                            0.08975432068109512,
                            0.06878427416086197,
                            0.01762378215789795,
                            0.17493169009685516,
                            0.12252360582351685,
                            -0.24054113030433655,
                            -0.23083864152431488
                        ],
                        [
                            -0.18707509338855743,
                            -0.41238242387771606,
                            0.008792760781943798,
                            0.20675061643123627,
                            -0.05767315626144409,
                            0.3198715150356293,
                            -0.1452416628599167,
                            -0.27854886651039124,
                            -0.21399478614330292,
                            0.33625528216362,
                            0.13313095271587372,
                            0.061027638614177704,
                            -0.7202234268188477,
                            0.2716478109359741,
                            0.0953117087483406,
                            0.013240613974630833,
                            -0.5624843835830688,
                            0.17075544595718384,
                            -0.040321528911590576,
                            0.2346022129058838,
                            0.45163196325302124,
                            -0.35246068239212036,
                            -0.28146395087242126,
                            0.29626959562301636,
                            -0.42246878147125244,
                            0.36800360679626465,
                            0.27873939275741577,
                            -0.39656510949134827,
                            0.09066921472549438,
                            0.07667692005634308,
                            -0.13951468467712402,
                            -0.046449191868305206,
                            -0.06944325566291809,
                            0.2591489851474762,
                            0.28458425402641296,
                            0.1958855539560318
                        ],
                        [
                            0.09932690113782883,
                            0.18558767437934875,
                            -0.04197635129094124,
                            -0.17799291014671326,
                            -0.04264308139681816,
                            -0.07871700078248978,
                            -0.021625429391860962,
                            -0.03228023648262024,
                            0.014558102004230022,
                            -0.24375811219215393,
                            -0.05058836564421654,
                            -0.1612810492515564,
                            -0.046331364661455154,
                            -0.07761795073747635,
                            0.05580861121416092,
                            -0.03555690124630928,
                            -0.11850149929523468,
                            -0.347872793674469,
                            -0.06878773868083954,
                            0.01480654813349247,
                            0.002093095798045397,
                            0.057379789650440216,
                            -0.0016877561574801803,
                            -0.37978410720825195,
                            -0.07443208247423172,
                            -0.23335884511470795,
                            0.06146135926246643,
                            0.18299873173236847,
                            -0.09407259523868561,
                            -0.22276614606380463,
                            -0.03379078209400177,
                            -0.2718404531478882,
                            0.08158771693706512,
                            -0.15904517471790314,
                            0.009131597355008125,
                            -0.01378342229872942
                        ],
                        [
                            -0.20619350671768188,
                            -0.1482934206724167,
                            0.016338791698217392,
                            -0.06384360790252686,
                            0.3754577934741974,
                            0.17851859331130981,
                            -0.018747663125395775,
                            0.3583102822303772,
                            0.14178429543972015,
                            0.2636933922767639,
                            0.0712263211607933,
                            0.10310793668031693,
                            -0.0397862084209919,
                            -0.056943196803331375,
                            -0.5033886432647705,
                            0.06486230343580246,
                            0.1739460527896881,
                            0.3222552537918091,
                            -0.35619592666625977,
                            0.0802614614367485,
                            0.05720288306474686,
                            -0.13687722384929657,
                            -0.15677081048488617,
                            0.45147383213043213,
                            -0.1519571840763092,
                            -0.11517126858234406,
                            0.40239790081977844,
                            -0.1983949989080429,
                            0.07444165647029877,
                            0.05845412239432335,
                            -0.25844117999076843,
                            0.08238908648490906,
                            -0.11159110069274902,
                            0.18425524234771729,
                            0.0440535731613636,
                            -0.2926187813282013
                        ],
                        [
                            0.02591892145574093,
                            0.2674250304698944,
                            -0.2656272351741791,
                            0.13190986216068268,
                            -0.3993717432022095,
                            -0.2406526505947113,
                            -0.15865442156791687,
                            -0.0839133933186531,
                            -0.08925926685333252,
                            -0.43583470582962036,
                            -0.09924338757991791,
                            -0.013887361623346806,
                            0.44352343678474426,
                            -0.05553382635116577,
                            -0.09904781728982925,
                            -0.40350142121315,
                            0.5209334492683411,
                            0.09795214980840683,
                            0.05292004346847534,
                            -0.1898685246706009,
                            -0.49435266852378845,
                            0.547604501247406,
                            -0.03161489591002464,
                            -0.100921630859375,
                            0.4751298427581787,
                            -0.26293179392814636,
                            -0.39505720138549805,
                            0.3664115369319916,
                            0.09067205339670181,
                            -0.4451516270637512,
                            0.07479897886514664,
                            0.06495807319879532,
                            -0.17757557332515717,
                            -0.2396591156721115,
                            -0.2438020557165146,
                            -0.0309175793081522
                        ],
                        [
                            0.0175076462328434,
                            -0.018799278885126114,
                            0.20206524431705475,
                            -0.11626681685447693,
                            -0.18170411884784698,
                            0.12679903209209442,
                            0.190907821059227,
                            7.622115663252771e-05,
                            -0.45800212025642395,
                            0.07257456332445145,
                            -0.04302072897553444,
                            0.08434044569730759,
                            0.17753952741622925,
                            -0.08426553755998611,
                            -0.052487630397081375,
                            -0.31785038113594055,
                            0.01736912876367569,
                            -0.11001110821962357,
                            -0.04202025383710861,
                            -0.304377019405365,
                            -0.313164085149765,
                            0.23651869595050812,
                            -0.06934724748134613,
                            0.0032068672589957714,
                            0.20267923176288605,
                            -0.2768669128417969,
                            -0.07825036346912384,
                            0.12659862637519836,
                            0.300693541765213,
                            -0.23675012588500977,
                            -0.3623925745487213,
                            0.24786324799060822,
                            -0.06193415820598602,
                            -0.19521085917949677,
                            -0.5128213763237,
                            0.006372722797095776
                        ],
                        [
                            0.09620968252420425,
                            0.023371407762169838,
                            -0.14140480756759644,
                            0.18208688497543335,
                            0.24700789153575897,
                            -0.16012611985206604,
                            0.09096226841211319,
                            -0.29361990094184875,
                            -0.21750834584236145,
                            0.05390886217355728,
                            -0.42186468839645386,
                            -0.2572406828403473,
                            -0.3450329899787903,
                            0.16372835636138916,
                            -0.03249770775437355,
                            0.27851760387420654,
                            -0.15211448073387146,
                            0.327421098947525,
                            0.12401703745126724,
                            -0.25203537940979004,
                            0.27248135209083557,
                            -0.31104329228401184,
                            0.15959139168262482,
                            -0.04640544205904007,
                            -0.06591684371232986,
                            0.07570358365774155,
                            0.023937247693538666,
                            -0.034790970385074615,
                            -0.25385022163391113,
                            0.19021651148796082,
                            -0.03903473913669586,
                            0.08635788410902023,
                            0.021673137322068214,
                            -0.10009303689002991,
                            0.039714373648166656,
                            0.2061925083398819
                        ],
                        [
                            0.028976066038012505,
                            -0.2598109543323517,
                            -0.17873123288154602,
                            0.0708887055516243,
                            0.05341164022684097,
                            -0.31526046991348267,
                            0.11781179904937744,
                            -0.11520041525363922,
                            -0.15830081701278687,
                            -0.17344069480895996,
                            0.028867892920970917,
                            -0.0463925302028656,
                            -0.3276091516017914,
                            -0.04548557475209236,
                            0.10991667211055756,
                            0.1862793117761612,
                            -0.2249283641576767,
                            -0.11564750224351883,
                            0.12465541064739227,
                            -0.004403503146022558,
                            -0.007536111865192652,
                            -0.36974823474884033,
                            0.0002789472637232393,
                            -0.2970919907093048,
                            -0.1933733969926834,
                            -0.02925841510295868,
                            -0.08882524073123932,
                            -0.25211402773857117,
                            -0.023459812626242638,
                            0.2636337876319885,
                            0.10755065828561783,
                            -0.08088424801826477,
                            -0.14245033264160156,
                            0.2010495662689209,
                            -0.08362557739019394,
                            0.20660986006259918
                        ],
                        [
                            0.24830427765846252,
                            0.23848994076251984,
                            -0.179387629032135,
                            0.027453076094388962,
                            -0.251255601644516,
                            -0.405838280916214,
                            0.2258695363998413,
                            0.18662379682064056,
                            -0.06386976689100266,
                            -0.47045081853866577,
                            0.07580302655696869,
                            -0.0890260711312294,
                            0.5838188529014587,
                            -0.004612605087459087,
                            -0.02745208330452442,
                            0.01393010001629591,
                            0.46017634868621826,
                            -0.00206785649061203,
                            -0.19512410461902618,
                            -0.2558940351009369,
                            -0.37214210629463196,
                            0.3386622369289398,
                            0.2767374515533447,
                            -0.04831291362643242,
                            0.6199220418930054,
                            -0.28458982706069946,
                            -0.19991405308246613,
                            0.20846235752105713,
                            0.19884178042411804,
                            -0.3131275475025177,
                            0.31510061025619507,
                            -0.21352419257164001,
                            0.01948545314371586,
                            -0.044244296848773956,
                            0.02092801406979561,
                            -0.22852018475532532
                        ],
                        [
                            -0.21168532967567444,
                            -0.010875407606363297,
                            -0.13269415497779846,
                            -0.10006201267242432,
                            0.16448664665222168,
                            0.05248953402042389,
                            0.16064360737800598,
                            0.13769634068012238,
                            0.14109520614147186,
                            0.18995998799800873,
                            -0.028074197471141815,
                            -0.005109728779643774,
                            -0.21134334802627563,
                            0.12940120697021484,
                            -0.23393583297729492,
                            0.13967902958393097,
                            0.040191177278757095,
                            -0.21512657403945923,
                            -0.11579136550426483,
                            0.08826743066310883,
                            0.03720785677433014,
                            -0.06648850440979004,
                            -0.15567538142204285,
                            0.33692875504493713,
                            0.07025783509016037,
                            0.08932656794786453,
                            0.30906495451927185,
                            0.18888653814792633,
                            -0.16972877085208893,
                            0.08404773473739624,
                            0.0958782285451889,
                            0.15719930827617645,
                            0.14680519700050354,
                            0.028217634186148643,
                            0.29727327823638916,
                            -0.17305590212345123
                        ]
                    ],
                    [
                        [
                            -0.01269875094294548,
                            -0.08425912261009216,
                            0.03651214390993118,
                            -0.15879206359386444,
                            0.32858267426490784,
                            -0.28235572576522827,
                            -0.11564862728118896,
                            0.21498186886310577,
                            0.02328532189130783,
                            -0.008950545452535152,
                            -0.15516340732574463,
                            0.06626525521278381,
                            -0.04833715036511421,
                            0.17208385467529297,
                            -0.42285382747650146,
                            0.0021140689495950937,
                            -0.06546476483345032,
                            -0.028095101937651634,
                            -0.12962384521961212,
                            0.14779049158096313,
                            0.027659056708216667,
                            0.03883088380098343,
                            0.02370099537074566,
                            0.03091905452311039,
                            -0.3376162648200989,
                            0.014717795886099339,
                            0.27544841170310974,
                            -0.09725457429885864,
                            -0.07661713659763336,
                            -0.17314200103282928,
                            -0.019458962604403496,
                            -0.06602417677640915,
                            0.06391587108373642,
                            -0.1532253623008728,
                            -0.05171751603484154,
                            -0.07696203142404556
                        ],
                        [
                            0.04246414825320244,
                            0.16054989397525787,
                            -0.274882972240448,
                            0.10247920453548431,
                            -0.15117894113063812,
                            0.07642863690853119,
                            -0.11451393365859985,
                            -0.019574662670493126,
                            -0.10264367610216141,
                            0.08316297829151154,
                            0.15933088958263397,
                            -0.136580690741539,
                            0.04172765463590622,
                            0.10411140322685242,
                            0.2970775067806244,
                            -0.09462476521730423,
                            -0.013328800909221172,
                            0.08646813780069351,
                            -0.18598207831382751,
                            -0.0434240885078907,
                            -0.08925655484199524,
                            -0.07200848311185837,
                            0.16365262866020203,
                            0.17992427945137024,
                            0.12239447236061096,
                            -0.018217463046312332,
                            -0.22128623723983765,
                            0.15784968435764313,
                            0.20790284872055054,
                            -0.2573677897453308,
                            0.10770987719297409,
                            0.05516184866428375,
                            0.23479795455932617,
                            0.2411649227142334,
                            0.06678741425275803,
                            0.1335161179304123
                        ],
                        [
                            0.335487425327301,
                            0.12435631453990936,
                            -0.20965032279491425,
                            0.06907917559146881,
                            -0.21304066479206085,
                            -0.10621974617242813,
                            0.0036220515612512827,
                            -0.4403596520423889,
                            -0.09616434574127197,
                            0.06631255894899368,
                            -0.11875654011964798,
                            0.13464787602424622,
                            -0.13649344444274902,
                            0.24275125563144684,
                            -0.03545822575688362,
                            -0.060734283179044724,
                            -0.2515680491924286,
                            0.05352083221077919,
                            0.0067818122915923595,
                            -0.0017837659688666463,
                            0.1561683565378189,
                            -0.2610885500907898,
                            0.03136354684829712,
                            -0.06767649948596954,
                            -0.06900326162576675,
                            -0.034585487097501755,
                            -0.02759367786347866,
                            -0.19529375433921814,
                            -0.12823951244354248,
                            -0.14651331305503845,
                            -0.22057543694972992,
                            -0.114438995718956,
                            -0.23708902299404144,
                            -0.05393444001674652,
                            -0.3039986789226532,
                            0.28845277428627014
                        ],
                        [
                            -0.03965321183204651,
                            0.12324068695306778,
                            -0.28947144746780396,
                            0.278023898601532,
                            0.1900930553674698,
                            -0.0038544107228517532,
                            -0.19388839602470398,
                            0.023120682686567307,
                            -0.13303612172603607,
                            -0.11476467549800873,
                            0.03630894422531128,
                            0.3547270894050598,
                            0.2806251645088196,
                            0.08570355176925659,
                            -0.4056144058704376,
                            -0.06764840334653854,
                            0.08831639587879181,
                            0.24448728561401367,
                            -0.06750041246414185,
                            -0.106797955930233,
                            -0.13072296977043152,
                            -0.11112545430660248,
                            -0.1575801819562912,
                            0.38614219427108765,
                            0.1102437674999237,
                            0.1891801804304123,
                            0.10295245051383972,
                            -0.016156112775206566,
                            -0.07860825210809708,
                            0.10718036442995071,
                            -0.0526614710688591,
                            0.058330900967121124,
                            -0.25853613018989563,
                            -0.1654587835073471,
                            0.038521841168403625,
                            -0.0935872495174408
                        ],
                        [
                            0.17475920915603638,
                            -0.20519252121448517,
                            0.10726495832204819,
                            0.20198681950569153,
                            -0.3639952540397644,
                            0.2704418897628784,
                            0.0053070164285600185,
                            -0.3389958143234253,
                            -0.234718918800354,
                            0.18949063122272491,
                            0.06706196814775467,
                            -0.13400277495384216,
                            0.0693173035979271,
                            0.15534049272537231,
                            0.1778084933757782,
                            -0.32798728346824646,
                            -0.09934160113334656,
                            0.3234439492225647,
                            0.003905446734279394,
                            -0.14627671241760254,
                            0.2836022675037384,
                            -0.18204006552696228,
                            0.24091950058937073,
                            0.03369831293821335,
                            0.1525392234325409,
                            0.03789937123656273,
                            -0.051473066210746765,
                            -0.19038116931915283,
                            -0.04492715001106262,
                            -0.2324078530073166,
                            -0.017229849472641945,
                            0.1657509058713913,
                            -0.1099960058927536,
                            0.11216786503791809,
                            -0.18911568820476532,
                            0.4271579384803772
                        ],
                        [
                            0.30970340967178345,
