{
    "in_shape": [
        null,
        null,
        1
    ],
    "layers": [
        {
            "type": "lstm",
            "activation": "tanh",
            "shape": [
                null,
                null,
                8
            ],
            "weights": [
                [
                    [
                        -0.0526001900434494,
                        -0.10085481405258179,
                        0.8364872932434082,
                        0.0706290602684021,
                        -0.26913514733314514,
                        0.41885411739349365,
                        -0.9847484230995178,
                        0.08844271302223206,
                        0.11272621154785156,
                        -0.008797615766525269,
                        0.32187724113464355,
                        0.35747796297073364,
                        0.2912672758102417,
                        -0.061266809701919556,
                        0.38294023275375366,
                        -0.052795618772506714,
                        0.7653670907020569,
                        -0.7770816683769226,
                        -0.3765980899333954,
                        0.9524518251419067,
                        0.5047181248664856,
                        -0.4669312536716461,
                        0.3469812572002411,
                        0.6213908195495605,
                        -0.16571944952011108,
                        0.10561630874872208,
                        0.937566339969635,
                        -0.12337362766265869,
                        -0.3606051206588745,
                        0.488034188747406,
                        -1.0547608137130737,
                        0.2830336093902588
                    ]
                ],
                [
                    [
                        0.3393009901046753,
                        -0.127996027469635,
                        -0.08706416189670563,
                        0.03608039394021034,
                        0.058358535170555115,
                        -0.32051214575767517,
                        0.02120731770992279,
                        0.05165256932377815,
                        -0.09303732216358185,
                        0.09803567826747894,
                        0.053146954625844955,
                        -0.08650859445333481,
                        -0.19191105663776398,
                        -0.11898431926965714,
                        -0.4187007248401642,
                        0.05831607058644295,
                        -0.06766697019338608,
                        -0.060896020382642746,
                        -0.10915139317512512,
                        -0.05939992889761925,
                        -0.18455101549625397,
                        0.19022105634212494,
                        -0.2684911787509918,
                        -0.18482276797294617,
                        0.23151467740535736,
                        -0.37634092569351196,
                        -0.04375650733709335,
                        -0.06693977117538452,
                        -0.17588578164577484,
                        -0.11374418437480927,
                        0.20759572088718414,
                        -0.05717255547642708
                    ],
                    [
                        0.17320334911346436,
                        0.17969214916229248,
                        0.19989481568336487,
                        0.019305480644106865,
                        -0.09157189726829529,
                        0.003516729921102524,
                        0.03322920575737953,
                        -0.33564090728759766,
                        0.10857138782739639,
                        -0.09554437547922134,
                        0.14926400780677795,
                        -0.39262455701828003,
                        -0.2824469804763794,
                        0.24209676682949066,
                        0.13101550936698914,
                        0.11437366902828217,
                        -0.15643933415412903,
                        0.016696181148290634,
                        -0.18304049968719482,
                        0.04834704473614693,
                        0.0858457162976265,
                        -0.10185512900352478,
                        -0.014771806076169014,
                        -0.2183651626110077,
                        -0.04097634181380272,
                        -0.17399080097675323,
                        -0.1852129101753235,
                        -0.003343778196722269,
                        0.3425193130970001,
                        0.29211246967315674,
                        0.021383412182331085,
                        0.11673872172832489
                    ],
                    [
                        0.2516634166240692,
                        0.23981575667858124,
                        0.23232224583625793,
                        0.05515292286872864,
                        0.118972547352314,
                        0.11878080666065216,
                        -0.20029427111148834,
                        -0.03354601189494133,
                        0.06678155064582825,
                        0.22452908754348755,
                        0.4433886706829071,
                        0.18664765357971191,
                        -0.06381167471408844,
                        -0.06165298819541931,
                        0.06293360888957977,
                        0.075351782143116,
                        0.24571073055267334,
                        -0.28485408425331116,
                        0.08217126876115799,
                        -0.003809405490756035,
                        0.0057028234004974365,
                        0.11765048652887344,
                        -0.1939995288848877,
                        0.09523220360279083,
                        0.1270332932472229,
                        0.32469213008880615,
                        -0.1637600213289261,
                        -0.006907168310135603,
                        -0.21670301258563995,
                        0.1944042444229126,
                        0.027054715901613235,
                        0.0777336061000824
                    ],
                    [
                        0.146074578166008,
                        0.07976328581571579,
                        0.08225882053375244,
                        -0.1245189979672432,
                        0.2600580155849457,
                        -0.18394091725349426,
                        0.19675906002521515,
                        0.014775256626307964,
                        0.07944226264953613,
                        -0.10960516333580017,
                        -0.23961316049098969,
                        0.19534720480442047,
                        -0.2912161946296692,
                        0.16998162865638733,
                        -0.13170936703681946,
                        0.08824076503515244,
                        -0.15286479890346527,
                        0.021981405094265938,
                        0.0759301409125328,
                        -0.10887282341718674,
                        0.0874430313706398,
                        -0.03948431834578514,
                        0.026182543486356735,
                        0.452614426612854,
                        0.2961612045764923,
                        0.0809507668018341,
                        0.1264217048883438,
                        0.37762361764907837,
                        0.09878354519605637,
                        0.1708710938692093,
                        -0.09270550310611725,
                        -0.016788633540272713
                    ],
                    [
                        0.08296957612037659,
                        0.2131434977054596,
                        0.032765742391347885,
                        -0.19604918360710144,
                        0.05132091045379639,
                        -0.15874537825584412,
                        0.038331929594278336,
                        0.0217290036380291,
                        0.04769062623381615,
                        -0.11242995411157608,
                        -0.33641546964645386,
                        -0.16032469272613525,
                        -0.03928304463624954,
                        -0.1196078509092331,
                        0.16902709007263184,
                        -0.018442297354340553,
                        0.20955190062522888,
                        -0.07635520398616791,
                        -0.1630137860774994,
                        0.22512675821781158,
                        -0.5955901145935059,
                        -0.15526624023914337,
                        0.09803878515958786,
                        -0.17117002606391907,
                        0.04946795105934143,
                        0.27254393696784973,
                        -0.12278132140636444,
                        0.15084095299243927,
                        -0.12254990637302399,
                        -0.051497314125299454,
                        0.05318045616149902,
                        0.0070779891684651375
                    ],
                    [
                        -0.07635622471570969,
                        0.02221103571355343,
                        -0.30878210067749023,
                        0.1304473727941513,
                        0.12330172210931778,
                        -0.18822282552719116,
                        0.16442078351974487,
                        0.15240468084812164,
                        -0.19132830202579498,
                        0.007768277544528246,
                        0.09573771804571152,
                        -0.02485228329896927,
                        -0.3587663173675537,
                        -0.201727494597435,
                        0.25232991576194763,
                        -0.16727156937122345,
                        -0.15212219953536987,
                        -0.24590225517749786,
                        -0.15589427947998047,
                        0.11579437553882599,
                        0.12400534003973007,
                        0.23619846999645233,
                        0.022657036781311035,
                        -0.1397077441215515,
                        -0.2225901484489441,
                        0.18180209398269653,
                        0.3420781195163727,
                        0.029131362214684486,
                        -0.01255958154797554,
                        0.23344695568084717,
                        0.015018771402537823,
                        0.07105585932731628
                    ],
                    [
                        0.22607260942459106,
                        -0.11635692417621613,
                        0.0825393870472908,
                        -0.14113259315490723,
                        -0.03611162677407265,
                        -0.23249152302742004,
                        -0.1064620092511177,
                        -0.024138864129781723,
                        -0.3125085234642029,
                        -0.2884344458580017,
                        0.1509914994239807,
                        -0.18756084144115448,
                        0.20736798644065857,
                        0.035999953746795654,
                        0.20613402128219604,
                        -0.03357791528105736,
                        -0.08251583576202393,
                        0.14326418936252594,
                        0.30782556533813477,
                        0.12942780554294586,
                        0.04826567322015762,
                        -0.04377078637480736,
                        -0.11499804258346558,
                        -0.018804064020514488,
                        0.03977632895112038,
                        0.06017136573791504,
                        0.09475285559892654,
                        -0.0029287301003932953,
                        -0.17124737799167633,
                        0.22924485802650452,
                        -0.13710899651050568,
                        -0.49301692843437195
                    ],
                    [
                        -0.19334448873996735,
                        0.09181201457977295,
                        -0.17342782020568848,
                        -0.3205580413341522,
                        -0.17188221216201782,
                        -0.20599807798862457,
                        -0.17569585144519806,
                        0.09252121299505234,
                        -0.06945642828941345,
                        0.20521721243858337,
                        0.24829338490962982,
                        0.047122418880462646,
                        -0.15931624174118042,
                        0.0460006408393383,
                        -0.08821175992488861,
                        -0.027673304080963135,
                        0.09881523251533508,
                        0.22453495860099792,
                        0.04991838335990906,
                        0.1333615481853485,
                        -0.0826539546251297,
                        -0.20080280303955078,
                        -0.011958330869674683,
                        -0.07814200222492218,
                        0.387184739112854,
                        0.06997782737016678,
                        0.2264610379934311,
                        -0.2397581934928894,
                        0.2175079882144928,
                        0.024550970643758774,
                        -0.2742477059364319,
                        0.2062298059463501
                    ]
                ],
                [
                    0.9857636094093323,
                    1.4302786588668823,
                    0.5141411423683167,
                    1.3460952043533325,
                    0.9035874009132385,
                    0.7448693513870239,
                    0.17911061644554138,
                    1.1556529998779297,
                    0.002986460691317916,
                    0.03243685141205788,
                    -0.01853240467607975,
                    -0.010063190944492817,
                    0.0728137418627739,
                    -0.07140829414129257,
                    0.011779597960412502,
                    0.11109484732151031,
                    -0.7305740118026733,
                    -0.9449910521507263,
                    -0.7016984224319458,
                    -1.1573206186294556,
                    -0.2060413956642151,
                    -0.40208470821380615,
                    -0.6719101667404175,
                    0.7204583287239075,
                    1.094446063041687,
                    1.3494611978530884,
                    0.4908125698566437,
                    1.292906403541565,
                    1.0164802074432373,
                    0.7294697761535645,
                    0.3249785006046295,
                    1.155238389968872
                ]
            ]
        },
        {
            "type": "dense",
            "activation": "",
            "shape": [
                null,
                null,
                1
            ],
            "weights": [
                [
                    [
                        1.352463960647583
                    ],
                    [
                        -1.294754981994629
                    ],
                    [
                        -0.844736635684967
                    ],
                    [
                        1.0631743669509888
                    ],
                    [
                        1.005413293838501
                    ],
                    [
                        -1.358245611190796
                    ],
                    [
                        1.3753832578659058
                    ],
                    [
                        1.231284737586975
                    ]
                ],
                [
                    -0.11946220695972443
                ]
            ]
        }
    ]
}