{
    "in_shape": [
        null,
        1
    ],
    "layers": [
        {
            "type": "dense",
            "activation": "tanh",
            "shape": [
                null,
                256
            ],
            "weights": [
                [
                    [
                        -0.12009129673242569,
                        -0.08960140496492386,
                        -0.21899092197418213,
                        0.010035786777734756,
                        -0.1096850261092186,
                        -0.0934198871254921,
                        0.043863870203495026,
                        -0.09754190593957901,
                        -0.1644895225763321,
                        0.1152123212814331,
                        -0.07828641682863235,
                        0.039429325610399246,
                        0.09284695237874985,
                        0.09780309349298477,
                        0.11371046304702759,
                        0.07912025600671768,
                        0.19004051387310028,
                        -0.13484734296798706,
                        -0.08942697942256927,
                        -0.05389665812253952,
                        0.052903175354003906,
                        0.1336572915315628,
                        -0.06784592568874359,
                        0.151528462767601,
                        -0.07061301916837692,
                        -0.12743337452411652,
                        0.10133451968431473,
                        -0.232559472322464,
                        0.07458016276359558,
                        -0.02226751670241356,
                        -0.012331223115324974,
                        0.07485811412334442,
                        0.0020495811477303505,
                        -0.17182375490665436,
                        0.19873705506324768,
                        -0.16408154368400574,
                        0.07894741743803024,
                        -0.13964304327964783,
                        -0.15218664705753326,
                        -0.0794154480099678,
                        0.0831950232386589,
                        -0.12408687174320221,
                        -0.15523014962673187,
                        -0.15984021127223969,
                        -0.06751175969839096,
                        0.01304767094552517,
                        -0.1826227605342865,
                        0.18269670009613037,
                        -0.21553343534469604,
                        -0.014381702058017254,
                        -0.03565800562500954,
                        -0.020434178411960602,
                        -0.16928322613239288,
                        -0.12047582864761353,
                        0.11031726002693176,
                        0.024562275037169456,
                        0.09806251525878906,
                        -0.07507864385843277,
                        0.1498018354177475,
                        -0.09475963562726974,
                        -0.12025627493858337,
                        0.20275628566741943,
                        0.12155532091856003,
                        -0.062471937388181686,
                        -0.06758737564086914,
                        0.02448822557926178,
                        0.10564742982387543,
                        -0.17076346278190613,
                        -0.08449388295412064,
                        -0.1563226878643036,
                        0.10648808628320694,
                        0.13825078308582306,
                        -0.1392364352941513,
                        -0.028749849647283554,
                        -0.02819567546248436,
                        0.0819583386182785,
                        -0.14236655831336975,
                        -0.14379891753196716,
                        0.1482846438884735,
                        0.07747133821249008,
                        -0.08152499794960022,
                        -0.055238571017980576,
                        -0.08236945420503616,
                        -0.10825708508491516,
                        0.17039354145526886,
                        -0.11708385497331619,
                        -0.000241543457377702,
                        0.13230650126934052,
                        0.14205336570739746,
                        -0.16252081096172333,
                        0.09642457216978073,
                        0.14514340460300446,
                        0.01606561243534088,
                        -0.013902497477829456,
                        0.03126683086156845,
                        -0.14451585710048676,
                        0.07677974551916122,
                        -0.012016979977488518,
                        0.1333507001399994,
                        -0.03518358990550041,
                        0.15916720032691956,
                        -0.08088045567274094,
                        -0.21146996319293976,
                        0.08814555406570435,
                        0.10558149963617325,
                        0.14424432814121246,
                        0.10639022290706635,
                        0.1634162962436676,
                        0.19601209461688995,
                        0.09976882487535477,
                        0.06896062195301056,
                        0.10394059121608734,
                        0.0002623877371661365,
                        0.09837484359741211,
                        -0.03108498826622963,
                        -0.06593038141727448,
                        0.11918866634368896,
                        -0.12147390097379684,
                        0.13530947268009186,
                        0.05087358132004738,
                        -0.08062699437141418,
                        -0.04316166415810585,
                        -0.09790997952222824,
                        -0.1574237048625946,
                        -0.09395917505025864,
                        0.11456785351037979,
                        0.1239214614033699,
                        0.1784459501504898,
                        0.09881427139043808,
                        -0.0003094625717494637,
                        0.1049523577094078,
                        0.021259170025587082,
                        -0.13626044988632202,
                        -0.11122287809848785,
                        0.1916271448135376,
                        0.046677760779857635,
                        0.035276006907224655,
                        0.04465796425938606,
                        0.061346326023340225,
                        -0.04095902666449547,
                        0.1439928114414215,
                        -0.053627993911504745,
                        -0.13208433985710144,
                        0.13854089379310608,
                        0.053008392453193665,
                        -0.12543126940727234,
                        0.04014470800757408,
                        -0.16750042140483856,
                        0.10334877669811249,
                        -0.04728293791413307,
                        -0.1393170952796936,
                        0.10438022017478943,
                        -0.12283096462488174,
                        0.01778867468237877,
                        -0.1444309502840042,
                        0.22917671501636505,
                        -0.15349364280700684,
                        -0.09135643392801285,
                        -0.1298757642507553,
                        -0.0006766735459677875,
                        -0.11911934614181519,
                        0.0003047427162528038,
                        0.1449112594127655,
                        -0.023421427235007286,
                        0.10082562267780304,
                        0.16283538937568665,
                        -0.10894034802913666,
                        0.1007833406329155,
                        0.20719708502292633,
                        0.08195773512125015,
                        -0.07115263491868973,
                        -0.15342290699481964,
                        -0.1126573458313942,
                        0.04432768002152443,
                        -0.15697619318962097,
                        -0.10965298116207123,
                        0.14347948133945465,
                        -0.08359801024198532,
                        0.14094482362270355,
                        0.15304595232009888,
                        -0.0014007310383021832,
                        0.06472297757863998,
                        0.08061424642801285,
                        -0.09893249720335007,
                        -0.13326174020767212,
                        -0.044219955801963806,
                        -0.15141835808753967,
                        0.07760101556777954,
                        0.16545771062374115,
                        -0.0002989546046592295,
                        0.019733447581529617,
                        -0.03194963186979294,
                        -0.02695317380130291,
                        -0.0637904480099678,
                        -0.15088409185409546,
                        0.1440131664276123,
                        -0.12527504563331604,
                        0.10230427980422974,
                        -0.11016669124364853,
                        -0.12470848113298416,
                        -0.13711795210838318,
                        -0.11019942909479141,
                        -0.1137697771191597,
                        -0.14112718403339386,
                        0.06495241075754166,
                        0.015627779066562653,
                        -0.0004696101532317698,
                        -0.12008968740701675,
                        0.008853559382259846,
                        -0.08958286046981812,
                        0.04752034321427345,
                        0.0925886407494545,
                        0.17981845140457153,
                        0.014095527119934559,
                        -0.01932479813694954,
                        0.12043942511081696,
                        0.16813470423221588,
                        -0.23199516534805298,
                        -0.00193039292935282,
                        0.15913569927215576,
                        -0.12105613946914673,
                        -0.12848883867263794,
                        0.18035490810871124,
                        -0.11527155339717865,
                        0.1279088407754898,
                        0.16685928404331207,
                        0.20233884453773499,
                        -0.19423885643482208,
                        0.07984364777803421,
                        -0.022182917222380638,
                        -0.12123852223157883,
                        0.10633750259876251,
                        0.027180613949894905,
                        0.08355814963579178,
                        0.022437164559960365,
                        -0.14393867552280426,
                        -0.06717175990343094,
                        0.09290751069784164,
                        -0.20239441096782684,
                        0.18170994520187378,
                        -0.00029789406107738614,
                        0.06583558022975922,
                        -0.17637388408184052,
                        -0.08054129779338837,
                        0.12533210217952728,
                        0.14639610052108765,
                        0.11712772399187088,
                        -0.10933181643486023,
                        -0.12963981926441193,
                        0.0657607838511467,
                        -0.05217554420232773,
                        0.20861965417861938,
                        0.14383772015571594,
                        0.036927804350852966,
                        -0.1537654548883438,
                        -0.16404131054878235
                    ]
                ],
                [
                    0.00023534006322734058,
                    1.1611748050199822e-05,
                    6.4281870436389e-05,
                    8.410672307945788e-05,
                    -6.268394645303488e-05,
                    0.0002339079073863104,
                    -3.9326554542640224e-05,
                    -2.470354775141459e-05,
                    0.0001041662908392027,
                    6.792302883695811e-05,
                    0.0001319254661211744,
                    -7.863571954658255e-05,
                    -0.0005590821383520961,
                    -0.00011032439942937344,
                    -7.65244840295054e-06,
                    -0.0003866031183861196,
                    0.00025733374059200287,
                    -0.00028739619301632047,
                    0.0009543626802042127,
                    0.0003105376090388745,
                    1.254926792171318e-05,
                    3.970819307141937e-05,
                    4.112013129997649e-07,
                    0.00031467591179534793,
                    0.00016273441724479198,
                    0.00021050994109828025,
                    9.804291039472446e-06,
                    -0.0005772847798652947,
                    -0.00028134253807365894,
                    1.757463223839295e-07,
                    0.00017594544624444097,
                    5.248151865089312e-05,
                    8.832913408696186e-06,
                    0.00029416376492008567,
                    9.309998858952895e-05,
                    5.3158764785621315e-05,
                    -0.00019107152184005827,
                    5.086964665679261e-05,
                    -0.00011303776409476995,
                    7.333223766181618e-05,
                    3.56928794644773e-05,
                    -0.0003346781013533473,
                    9.380191841046326e-06,
                    -0.00040200381772592664,
                    9.14733755053021e-05,
                    -0.0001334884000243619,
                    -0.00024233662406913936,
                    9.144578507402912e-05,
                    -0.0004038716433569789,
                    0.0001939544454216957,
                    4.1873776353895664e-05,
                    0.0005293582798913121,
                    -9.355178190162405e-05,
                    -6.794056389480829e-06,
                    0.00012919848086312413,
                    -8.108084148261696e-05,
                    0.0002827990392688662,
                    0.0004669149057008326,
                    9.962652256945148e-05,
                    -0.0002729495754465461,
                    9.883620077744126e-05,
                    0.00039661870687268674,
                    -0.0005284164217300713,
                    0.0005245986976660788,
                    -3.7059122405480593e-05,
                    0.00011686632205964997,
                    2.9957231163280085e-05,
                    -8.751816494623199e-05,
                    0.0001991714525502175,
                    -0.0005494796205312014,
                    0.00015880379942245781,
                    0.00028125918470323086,
                    9.35742209549062e-05,
                    0.00024460387066937983,
                    0.00032820922206155956,
                    -0.0001599198003532365,
                    1.3003895219299011e-05,
                    2.0812742150155827e-05,
                    -5.814341420773417e-06,
                    -8.660064486321062e-05,
                    -0.00020940038666594774,
                    0.0002576397673692554,
                    3.517518416629173e-05,
                    0.0002589135547168553,
                    3.366604869370349e-05,
                    8.470768807455897e-05,
                    -2.0010787920909934e-05,
                    0.00011163010640302673,
                    0.0001674895320320502,
                    0.00027131865499541163,
                    -0.00019454424909781665,
                    0.00012994330609217286,
                    -8.114651427604258e-05,
                    8.815560431685299e-05,
                    -0.00014026057033333927,
                    0.00016942026559263468,
                    0.0001001843047561124,
                    -3.1801995646674186e-05,
                    3.990739060100168e-05,
                    -1.0669444236555137e-05,
                    -2.1752506654593162e-05,
                    0.00010617486987030134,
                    -0.00014588786871172488,
                    -0.001072146580554545,
                    7.963122334331274e-05,
                    8.457615331280977e-05,
                    -0.00015338609227910638,
                    4.9537167797097936e-05,
                    0.00045288715045899153,
                    -0.00018398223619442433,
                    -0.00022097113833297044,
                    -0.00016909930855035782,
                    -1.6283449440379627e-05,
                    -0.00010240791743854061,
                    0.000421622913563624,
                    9.965645585907623e-05,
                    2.7849595426232554e-05,
                    0.000267455936409533,
                    -0.0003593689762055874,
                    0.00017517023661639541,
                    2.0932979168719612e-05,
                    0.0003031291998922825,
                    0.0003033364482689649,
                    -8.878154767444357e-05,
                    0.00019254625658504665,
                    -0.00013051506539341062,
                    -5.860896271769889e-05,
                    8.272816194221377e-05,
                    -0.0004776689747814089,
                    -1.7659720469964668e-05,
                    8.457826334051788e-05,
                    -8.666380745125934e-05,
                    -1.748068825691007e-05,
                    0.00048554057138971984,
                    8.32805599202402e-05,
                    -6.902248424012214e-05,
                    -0.0006049846415407956,
                    -8.266972872661427e-05,
                    -0.00014488921442534775,
                    -2.170300649595447e-05,
                    4.681493010139093e-05,
                    0.0002715406590141356,
                    -0.0003883119788952172,
                    -0.00016348551434930414,
                    0.0002790730504784733,
                    2.583816967671737e-05,
                    4.039369378006086e-05,
                    -0.0004946669214405119,
                    -0.0006470807711593807,
                    6.0535490774782375e-05,
                    0.0002072990610031411,
                    -0.0002891109324991703,
                    9.45032516028732e-05,
                    -6.724124978063628e-05,
                    -6.192756700329483e-05,
                    0.0002525791642256081,
                    0.00010523666423978284,
                    1.5199823792499956e-05,
                    -3.9219274185597897e-05,
                    0.0002671301190275699,
                    0.0003430978977121413,
                    -2.908845999627374e-05,
                    0.0002919808030128479,
                    7.674002699786797e-05,
                    -0.0002569648786447942,
                    -1.2112319382140413e-05,
                    3.073508196393959e-05,
                    -0.00013791641686111689,
                    0.0002487627789378166,
                    0.00017282184853684157,
                    0.0004031257703900337,
                    -2.939064688689541e-05,
                    -9.763809794094414e-05,
                    6.874595783301629e-06,
                    0.00016354476974811405,
                    0.00029016300686635077,
                    -6.522666080854833e-05,
                    -1.4720449144078884e-05,
                    -0.0001446349488105625,
                    -0.00019832565158139914,
                    5.555598181672394e-05,
                    6.301526445895433e-05,
                    3.882203600369394e-05,
                    0.00017516584193799645,
                    0.00016675070219207555,
                    -6.772268534405157e-05,
                    0.0001531419256934896,
                    -7.32777698431164e-05,
                    -2.5251018087146804e-05,
                    0.0002314022567588836,
                    5.7495111832395196e-05,
                    2.6139765395782888e-05,
                    0.00033498185803182423,
                    -1.4815725080552511e-05,
                    -2.2344308945321245e-06,
                    -2.5956634999602102e-05,
                    -4.79643204016611e-05,
                    -8.168192289303988e-05,
                    -0.00012025497562717646,
                    2.8282642233534716e-05,
                    -0.0003724927664734423,
                    -0.00011613129754550755,
                    -4.0137612813850865e-05,
                    0.00028967499383725226,
                    -0.00040777254616841674,
                    -9.71544868662022e-05,
                    -1.259485179616604e-05,
                    -9.054034308064729e-05,
                    -0.0004956093616783619,
                    0.00027550727827474475,
                    1.3003550520807039e-05,
                    1.7046810171450488e-05,
                    9.871119254967198e-05,
                    -0.00015840015839785337,
                    -5.253302151686512e-05,
                    -9.213977318722755e-05,
                    -0.0004881036002188921,
                    2.5573846869519912e-05,
                    8.783114026300609e-05,
                    -0.00033714104210957885,
                    -8.06800599093549e-05,
                    2.2599599560635397e-06,
                    0.0005102495779283345,
                    0.00024618333554826677,
                    0.0001645189186092466,
                    0.00012876933033112437,
                    0.0006337206577882171,
                    0.0006531236576847732,
                    -0.0003157979517709464,
                    0.00011778927000705153,
                    2.383423407081864e-06,
                    4.085274485987611e-05,
                    0.0001211596536450088,
                    -0.0005428862059488893,
                    -0.0004789929080288857,
                    0.00011525244917720556,
                    -2.472074811521452e-05,
                    -0.0001324946788372472,
                    0.00010837242734851316,
                    0.00014484960411209613,
                    5.3133597248233855e-05,
                    7.61774426791817e-05,
                    -0.00015429622726514935,
                    0.0002630074159242213,
                    1.594076820765622e-05,
                    0.0006329850293695927,
                    1.9264558432041667e-05,
                    3.0606235668528825e-05,
                    9.670299186836928e-05,
                    -8.280202746391296e-05,
                    0.00030602747574448586,
                    0.0001711364893708378,
                    -6.211826985236257e-05,
                    -0.00013772335660178214,
                    -0.00016413364210166037,
                    -0.00021092718816362321
                ]
            ]
        },
        {
            "type": "dense",
            "activation": "tanh",
            "shape": [
                null,
                256
            ],
            "weights": [
                [
                    [
                        -0.04200204461812973,
                        0.07514540106058121,
                        0.023902088403701782,
                        0.05788835138082504,
                        -0.10512349009513855,
                        0.03792615979909897,
                        0.04980701953172684,
                        -0.058215025812387466,
                        -0.03499834984540939,
                        -0.06334453821182251,
                        0.1003781259059906,
                        0.0945129469037056,
                        0.06697611510753632,
                        -0.0729416236281395,
                        0.042442236095666885,
                        -0.02795439586043358,
                        -0.05345409736037254,
                        -0.07288999855518341,
                        0.007281589321792126,
                        0.05227532237768173,
                        -0.058316670358181,
                        -0.05479075014591217,
                        0.06626999378204346,
                        -0.16101866960525513,
                        0.031381167471408844,
                        0.0029981171246618032,
                        0.030434582382440567,
                        0.04807242006063461,
                        -0.03501374274492264,
                        0.026294494047760963,
                        -0.04090682044625282,
                        -0.08334246277809143,
                        0.09372925013303757,
                        0.05074409767985344,
                        -0.19976603984832764,
                        -0.09300006181001663,
                        0.040224190801382065,
                        0.05737451836466789,
                        0.005610703025013208,
                        -0.0654599517583847,
                        -0.01130413357168436,
                        0.07038149237632751,
                        -0.015508068725466728,
                        -0.013786467723548412,
                        -0.053800586611032486,
                        -0.03420547395944595,
                        0.09716974198818207,
                        0.08721505105495453,
                        0.08001957833766937,
                        0.0016680329572409391,
                        -0.006222129333764315,
                        0.07773245871067047,
                        -0.03172560781240463,
                        0.08649572730064392,
                        -0.09374965727329254,
                        0.007967334240674973,
                        -0.05512630194425583,
                        0.022400593385100365,
                        -0.014376619830727577,
                        -0.004668726120144129,
                        -0.09083013981580734,
                        0.09675203263759613,
                        0.07701611518859863,
                        0.005202671978622675,
                        -0.04684058949351311,
                        -0.02551213465631008,
                        -0.1100350022315979,
                        0.01023791078478098,
                        0.044672898948192596,
                        0.07717134803533554,
                        -0.09749933332204819,
                        0.03264070302248001,
                        -0.009533517993986607,
                        -0.10417953878641129,
                        -0.06064954027533531,
                        -0.0009288566070608795,
                        0.0821925476193428,
                        -0.05291753634810448,
                        0.02907591313123703,
                        0.07996072620153427,
                        0.0816015973687172,
                        0.01157160010188818,
                        0.062064655125141144,
                        0.03364746645092964,
                        -0.10603494197130203,
                        -0.09797770529985428,
                        0.06028745695948601,
                        0.09284805506467819,
                        0.07673623412847519,
                        -0.0920625627040863,
                        0.10719310492277145,
                        -0.09160535782575607,
                        0.07678771764039993,
                        0.04379455745220184,
                        0.018158216029405594,
                        -0.0793176144361496,
                        -0.08696616441011429,
                        -0.07831256836652756,
                        -0.10139267891645432,
                        0.0315772108733654,
                        -0.088998943567276,
                        0.07556826621294022,
                        0.08280165493488312,
                        0.03525783494114876,
                        0.04994528368115425,
                        0.03456136956810951,
                        0.06592770665884018,
                        0.015950685366988182,
                        -0.035291653126478195,
                        -0.04320509359240532,
                        0.08636920154094696,
                        0.01624322682619095,
                        -0.03964810445904732,
                        0.09710176289081573,
                        -0.025492489337921143,
                        -0.08627264201641083,
                        0.07919634133577347,
                        0.1074007898569107,
                        -0.05491112917661667,
                        -0.0676645040512085,
                        -0.06694985926151276,
                        -0.10647337883710861,
                        0.08353939652442932,
                        0.02131430245935917,
                        0.08995027095079422,
                        -0.10593847930431366,
                        -0.0698818787932396,
                        -0.06547746807336807,
                        -0.0952850803732872,
                        -0.023336665704846382,
                        -0.1019650250673294,
                        -0.09260571002960205,
                        -0.09613233059644699,
                        0.09706113487482071,
                        0.10648399591445923,
                        -0.033623162657022476,
                        0.08652759343385696,
                        -0.007187739945948124,
                        0.09696750342845917,
                        0.07565546035766602,
                        -0.00030745865660719573,
                        0.12935222685337067,
                        0.005804437678307295,
                        -0.01558124553412199,
                        0.06502967327833176,
                        -0.014212891459465027,
                        -0.019031371921300888,
                        0.08979935199022293,
                        0.04232440143823624,
                        5.7763318181969225e-06,
                        -0.003786399494856596,
                        0.06564964354038239,
                        0.07943865656852722,
                        -0.06800468266010284,
                        0.03194846957921982,
                        -0.06177192181348801,
                        -0.08421573787927628,
                        -0.027762113139033318,
                        0.0749397873878479,
                        0.07358020544052124,
                        0.08048950135707855,
                        -0.021947424858808517,
                        0.011762580834329128,
                        -0.0006637059850618243,
                        0.0641704723238945,
                        -0.013476311229169369,
                        -0.06454017013311386,
                        -0.016095221042633057,
                        0.03321416676044464,
                        0.04595649987459183,
                        -0.07728762179613113,
                        0.06607429683208466,
                        0.05063346028327942,
                        -0.05331731587648392,
                        -0.0339619517326355,
                        -0.06405764818191528,
                        -0.0345991849899292,
                        0.10210005939006805,
                        -0.015522001311182976,
                        -0.08004041761159897,
                        -0.07758277654647827,
                        -0.010825132019817829,
                        -0.046696241945028305,
                        0.05908631905913353,
                        -0.09814687818288803,
                        0.07608090341091156,
                        0.08845973759889603,
                        -0.06145617365837097,
                        -0.1086646243929863,
                        -0.10027972608804703,
                        0.056396257132291794,
                        -0.08745795488357544,
                        -0.060736238956451416,
                        0.09471258521080017,
                        -0.06048125401139259,
                        0.09545872360467911,
                        0.09967207908630371,
                        -0.04760657995939255,
                        0.04211963713169098,
                        -0.10232611000537872,
                        0.04926607757806778,
                        -0.035391759127378464,
                        -0.025636011734604836,
                        0.06354352086782455,
                        -0.04856971278786659,
                        0.026384670287370682,
                        -0.047276128083467484,
                        -0.09687687456607819,
                        0.028800034895539284,
                        0.044998638331890106,
                        -0.10886245965957642,
                        -0.1010771170258522,
                        -0.03541067987680435,
                        -0.0003089460951741785,
                        -0.10845405608415604,
                        0.08685921132564545,
                        0.006522051990032196,
                        -0.02780427597463131,
                        0.034924015402793884,
                        0.028975360095500946,
                        -0.09028294682502747,
                        -0.03651060909032822,
                        -0.003842402948066592,
                        0.05056063085794449,
                        -0.0901113823056221,
                        0.071159727871418,
                        0.00031494683935306966,
                        -0.09010139107704163,
                        0.084636390209198,
                        -0.04681679606437683,
                        0.07153052091598511,
                        -0.043821848928928375,
                        0.0028226044960319996,
                        0.10642527043819427,
                        0.011542664840817451,
                        -0.07158569246530533,
                        -0.0028552517760545015,
                        0.06507308781147003,
                        -0.04871274530887604,
                        -0.0942424014210701,
                        -0.04312167689204216,
                        -0.03480476886034012,
                        0.052236635237932205,
                        -0.09014597535133362,
                        -0.1078731119632721,
                        -0.014125276356935501,
                        0.023253843188285828,
                        -0.1016707643866539,
                        -0.04415265470743179,
                        -0.005265816580504179,
                        0.09041495621204376,
                        0.048920102417469025,
                        0.15206791460514069,
                        -0.08389260619878769,
                        0.02176259271800518,
                        -0.021598896011710167
                    ],
                    [
                        0.06654337048530579,
                        0.03534843027591705,
                        -0.06488242000341415,
                        0.09332377463579178,
                        -0.024577893316745758,
                        0.008852865546941757,
                        -0.07297904789447784,
                        0.044852226972579956,
                        -0.031868062913417816,
                        0.09371259063482285,
                        -0.015959860756993294,
                        0.0012382359709590673,
                        0.09596721827983856,
                        -0.07546416670084,
                        0.015645192936062813,
                        -0.0985591933131218,
                        -0.09004416316747665,
                        -0.05487535893917084,
                        -0.10143417119979858,
                        -0.061364512890577316,
                        0.02455851621925831,
                        -0.017105888575315475,
                        0.0697420984506607,
                        -0.16286954283714294,
                        0.06775422394275665,
                        -0.02596292831003666,
                        -0.043159134685993195,
                        0.014635675586760044,
                        0.07445108145475388,
                        -0.07130248844623566,
                        -0.07216216623783112,
                        0.017523515969514847,
                        -0.06268686056137085,
                        0.0726858451962471,
                        -0.14472506940364838,
                        -0.07691435515880585,
                        0.08065532892942429,
                        -0.08085054904222488,
                        -0.0939057394862175,
                        -0.07880310714244843,
                        -0.10626453906297684,
                        0.02290133386850357,
                        -0.0938204750418663,
                        -0.05374691262841225,
                        -0.08942098915576935,
                        -0.049991413950920105,
                        -0.01983535848557949,
                        -0.09380199015140533,
                        0.07628346234560013,
                        0.07580972462892532,
                        0.03179721534252167,
                        0.015963302925229073,
                        0.01942095346748829,
                        0.0662289634346962,
                        0.008572932332754135,
                        -0.09463678300380707,
                        -0.020944757387042046,
                        0.033978383988142014,
                        -0.02944231405854225,
                        -0.062206998467445374,
                        0.013628778979182243,
                        -0.01588321290910244,
                        0.015353471040725708,
                        0.0560673326253891,
                        -0.017299696803092957,
                        -0.08594581484794617,
                        0.02018463984131813,
                        0.09662048518657684,
                        0.04565303772687912,
                        0.040384355932474136,
                        0.06183484196662903,
                        0.09045525640249252,
                        0.025384271517395973,
                        0.018994547426700592,
                        0.09370666742324829,
                        0.06290654093027115,
                        -0.03722335398197174,
                        0.03953470662236214,
                        0.06291250884532928,
                        -0.09145491570234299,
                        0.019995249807834625,
                        -0.06111621484160423,
                        0.09218919277191162,
                        -0.01950068213045597,
                        0.10515939444303513,
                        0.0876251682639122,
                        0.009589391760528088,
                        0.06121174246072769,
                        -0.08790659159421921,
                        0.004078413359820843,
                        -0.10352475941181183,
                        -0.056474704295396805,
                        0.006781432311981916,
                        -0.04416928067803383,
                        0.06855247914791107,
                        -0.051022376865148544,
                        -0.09491563588380814,
                        -0.09997812658548355,
                        -0.10642210394144058,
                        0.030454587191343307,
                        -0.06817854195833206,
                        -0.09165072441101074,
                        -0.0269077867269516,
                        0.08801551908254623,
                        0.013905942440032959,
                        0.03276306763291359,
                        0.07203169912099838,
                        0.0994630828499794,
                        0.0957450196146965,
                        0.1003657802939415,
                        0.09238506853580475,
                        -0.1019078865647316,
                        0.10306097567081451,
                        0.04255945235490799,
                        -0.03701212629675865,
                        -0.10710266977548599,
                        0.047609467059373856,
                        0.08981794118881226,
                        0.04923514276742935,
                        -0.036385878920555115,
                        -0.0616682767868042,
                        -0.08305658400058746,
                        0.06396736204624176,
                        0.08306502550840378,
                        0.09701276570558548,
                        -0.037880975753068924,
                        0.012233207002282143,
                        0.01904456317424774,
                        -0.058824505656957626,
                        0.04414898157119751,
                        0.09778977185487747,
                        -0.040676966309547424,
                        -0.08375628292560577,
                        -0.0366649255156517,
                        0.06426551192998886,
                        -0.10408543050289154,
                        -0.07282953709363937,
                        0.06933225691318512,
                        -0.00945720262825489,
                        -0.005466305650770664,
                        -0.026197779923677444,
                        0.0815027728676796,
                        0.07459235936403275,
                        -0.008646025322377682,
                        0.10331054776906967,
                        0.040352221578359604,
                        -0.10216911882162094,
                        0.07922366261482239,
                        0.040149860084056854,
                        -0.02133147418498993,
                        -0.0313212089240551,
                        0.09650348126888275,
                        -0.10450640320777893,
                        -0.08777641505002975,
                        0.06069427728652954,
                        -0.06882400810718536,
                        -0.0019073481671512127,
                        0.10234294086694717,
                        0.021535489708185196,
                        0.09665647894144058,
                        -0.10523615032434464,
                        0.10174393653869629,
                        0.009009063243865967,
                        -0.010660644620656967,
                        -0.1050768494606018,
                        -0.05576106160879135,
                        -0.0712406262755394,
                        -0.09381132572889328,
                        0.02717258594930172,
                        -0.10692410171031952,
                        0.026173999533057213,
                        -0.09972498565912247,
                        0.07206980884075165,
                        0.03535623475909233,
                        -0.0002170405932702124,
                        0.07753841578960419,
                        0.06502269953489304,
                        0.0805789977312088,
                        -0.10216110199689865,
                        -0.1067744642496109,
                        -0.0957811176776886,
                        0.02293406054377556,
                        -0.03858977183699608,
                        0.10072582215070724,
                        0.058593180030584335,
                        0.08003442734479904,
                        -0.023012511432170868,
                        -0.06383974105119705,
                        0.058219052851200104,
                        -0.09470892697572708,
                        -0.09826889634132385,
                        0.08418364822864532,
                        0.08445422351360321,
                        -0.021158501505851746,
                        -0.08910832554101944,
                        0.0166714359074831,
                        0.015211857855319977,
                        -0.05865105986595154,
                        -0.06668182462453842,
                        -0.010081817395985126,
                        -0.10155948996543884,
                        -0.00014058745000511408,
                        0.01471170037984848,
                        0.06338238716125488,
                        0.10697880387306213,
                        0.05322220176458359,
                        -0.003754462581127882,
                        0.08666446059942245,
                        0.009912275709211826,
                        0.029529524967074394,
                        0.08611113578081131,
                        0.09970719367265701,
                        -0.03749966621398926,
                        0.04277506470680237,
                        -0.03441604971885681,
                        -0.0009306534775532782,
                        -0.07548028230667114,
                        0.03269089758396149,
                        -0.08510810881853104,
                        -0.10576145350933075,
                        -0.10263089090585709,
                        -0.1004980131983757,
                        0.13171978294849396,
                        0.05742395669221878,
                        -0.05021747201681137,
                        -0.09133533388376236,
                        -0.07892890274524689,
                        -0.07422471791505814,
                        -0.02021847851574421,
                        -0.09272544831037521,
                        0.006472338456660509,
                        0.05445512756705284,
                        -0.07738154381513596,
                        -0.040745124220848083,
                        0.019917838275432587,
                        -0.028125859797000885,
                        -0.04840971529483795,
                        -0.09894795715808868,
                        0.03811287134885788,
                        -0.04335761070251465,
                        0.0829632431268692,
                        -0.04483557492494583,
                        0.046901002526283264,
                        0.02934478595852852,
                        -0.043066978454589844,
                        -0.078472800552845,
                        -0.036074306815862656,
                        -0.029598457738757133,
                        0.06800074875354767,
                        -0.10661748796701431,
                        -0.05388534814119339,
                        -0.06685499846935272,
                        0.12182290852069855,
                        0.03764089196920395,
                        0.05446489155292511,
                        0.07848367840051651
                    ],
                    [
                        -0.09235892444849014,
                        0.060435738414525986,
                        0.07857067883014679,
                        0.08165071159601212,
                        0.0201143529266119,
                        0.0623583123087883,
                        -0.0018286616541445255,
                        0.00022812627139501274,
                        0.09102077037096024,
                        0.06794682890176773,
                        -0.08420921862125397,
                        0.09407112002372742,
                        -0.05666017532348633,
                        0.07366786152124405,
                        0.02531617134809494,
                        0.049747515469789505,
                        -0.1385255753993988,
                        0.1084333062171936,
                        0.019627531990408897,
                        -0.03902989625930786,
                        0.07566682994365692,
                        -0.05431852489709854,
                        -0.05259915813803673,
                        -0.07127909362316132,
                        0.0888001099228859,
                        0.058848507702350616,
                        0.06887383759021759,
                        -0.0610695518553257,
                        -0.03653308376669884,
                        0.01814081519842148,
                        -0.14219588041305542,
                        -0.02490890957415104,
                        0.05183159187436104,
                        0.060915831476449966,
                        -0.18578502535820007,
                        0.08892003446817398,
                        -0.040230635553598404,
                        0.014080135151743889,
                        -0.026072099804878235,
                        0.0341121144592762,
                        -0.02878445014357567,
                        0.09861554950475693,
                        0.055139053612947464,
                        0.05466493219137192,
                        0.052026182413101196,
                        0.005736230406910181,
                        -0.03451424092054367,
                        -0.031085051596164703,
                        -0.010256526991724968,
                        -0.060956213623285294,
                        0.08748310059309006,
                        -0.06044498458504677,
                        -0.08030852675437927,
                        -0.026335924863815308,
                        0.07446785271167755,
                        0.05156810209155083,
                        -0.012302952818572521,
                        -0.008013945072889328,
                        -0.07728230953216553,
                        0.059298306703567505,
                        -0.103156179189682,
                        -0.06133634224534035,
                        -0.09300415217876434,
                        -0.06534284353256226,
                        0.05260932072997093,
                        -0.004831240046769381,
                        -0.07285552471876144,
                        -0.0020476256031543016,
                        0.02069535292685032,
                        -0.10889215767383575,
                        -0.08073300123214722,
                        0.07418352365493774,
                        0.05959469452500343,
                        -0.062269534915685654,
                        0.06619848310947418,
                        0.1068727895617485,
                        0.04186687618494034,
                        -0.051173269748687744,
                        -0.06298866868019104,
                        -0.036226220428943634,
                        0.06028514727950096,
                        -0.07407187670469284,
                        -0.03272948041558266,
                        0.06621655076742172,
                        -0.04487697035074234,
                        0.029407240450382233,
                        0.10447575896978378,
                        -0.09279053658246994,
                        0.051840443164110184,
                        -0.05489993467926979,
                        0.03810839354991913,
                        -0.05000397562980652,
                        -0.0675065889954567,
                        0.09925426542758942,
                        0.03771675378084183,
                        0.026009144261479378,
                        -0.013085396960377693,
                        0.023623095825314522,
                        0.036498818546533585,
                        -0.0940384715795517,
                        -0.05814236402511597,
                        -0.023903166875243187,
                        -0.001769206253811717,
                        0.10739242285490036,
                        -0.0831570029258728,
                        0.11422903090715408,
                        -0.02517635002732277,
                        -0.025244904682040215,
                        -0.07875694334506989,
                        -0.007523425854742527,
                        0.10487030446529388,
                        0.010670228861272335,
                        0.0063720569014549255,
                        -0.098432756960392,
                        -0.04197781905531883,
                        0.025891324505209923,
                        -0.08802534639835358,
                        -0.04615470767021179,
                        -0.018543720245361328,
                        0.03526777774095535,
                        -0.00802471674978733,
                        -0.22984644770622253,
                        -0.07144715636968613,
                        -0.10515140742063522,
                        -0.04068506881594658,
                        0.05745815485715866,
                        -0.07405080646276474,
                        0.1018148809671402,
                        0.026225946843624115,
                        -0.027143485844135284,
                        -0.07616575807332993,
                        0.0025143721140921116,
                        -0.012881018221378326,
                        0.03482809290289879,
                        -0.08160432428121567,
                        0.004679898265749216,
                        0.06928246468305588,
                        -0.087583526968956,
                        -0.033036742359399796,
                        -0.007417201064527035,
                        -0.0905613973736763,
                        0.18638218939304352,
                        -0.08319991081953049,
                        0.09598223119974136,
                        -0.02585393562912941,
                        0.03039834462106228,
                        -0.10266818851232529,
                        0.010123715735971928,
                        -0.027019400149583817,
                        0.09356949478387833,
                        -0.015332909300923347,
                        0.09624239057302475,
                        -0.07498912513256073,
                        0.08912182599306107,
                        -0.03697100281715393,
                        -0.0723797157406807,
                        -0.09522928297519684,
                        -0.10592114925384521,
                        0.06439941376447678,
                        0.034497953951358795,
                        0.08180069923400879,
                        -0.012323717586696148,
                        -0.03038092330098152,
                        -0.03131501376628876,
                        0.07177094370126724,
                        0.08574121445417404,
                        0.006442331243306398,
                        -0.032812006771564484,
                        0.036335479468107224,
                        -0.06726274639368057,
                        -0.0915888249874115,
                        -0.07844404131174088,
                        -0.056816067546606064,
                        -0.0692904070019722,
                        0.1035732552409172,
                        -0.11017969250679016,
                        0.022157007828354836,
                        -0.08482418209314346,
                        -0.05701284110546112,
                        -0.006203996483236551,
                        -0.07943613082170486,
                        -0.06145630031824112,
                        -0.026594551280140877,
                        -0.05528618395328522,
                        -0.0115932272747159,
                        0.07322026789188385,
                        0.07878556102514267,
                        0.03243334963917732,
                        -0.026769638061523438,
                        -0.03564850613474846,
                        0.0919031873345375,
                        0.1022677943110466,
                        0.01326280739158392,
                        0.031069308519363403,
                        0.012144831009209156,
                        0.042616330087184906,
                        0.06284307688474655,
                        0.036694396287202835,
                        0.03265976905822754,
                        -0.056650739163160324,
                        -0.06413039565086365,
                        -0.10898672044277191,
                        0.008999520912766457,
                        0.0257252287119627,
                        0.09616470336914062,
                        -0.08526147156953812,
                        -0.02218032069504261,
                        0.07653305679559708,
                        -0.016525380313396454,
                        -0.017149200662970543,
                        -0.09485222399234772,
                        0.06630858033895493,
                        0.00572641845792532,
                        0.06669243425130844,
                        -0.021230122074484825,
                        -0.04359080269932747,
                        0.07812342792749405,
                        0.06214927136898041,
                        -0.0956999808549881,
                        -0.045029137283563614,
                        0.09160788357257843,
                        -0.05957309529185295,
                        0.16137053072452545,
                        0.04206946864724159,
                        0.10927387326955795,
                        0.0108098816126585,
                        0.10384416580200195,
                        0.02087283879518509,
                        -0.018897896632552147,
                        -0.03873161971569061,
                        -0.10215289890766144,
                        -0.06093902885913849,
                        -0.09353630989789963,
                        0.10129513591527939,
                        0.022228244692087173,
                        0.026854440569877625,
                        -0.0735086128115654,
                        -0.0701141506433487,
                        0.09621968865394592,
                        0.07023055106401443,
                        0.006579799577593803,
                        0.03618553653359413,
                        0.006294973660260439,
                        -0.057610198855400085,
                        0.0017451851163059473,
                        -0.10355737805366516,
                        -0.086669921875,
                        0.06295542418956757,
                        -0.002271919511258602,
                        -0.07988505810499191,
                        0.012274476699531078,
                        -0.03056921251118183,
                        0.1904633343219757,
                        -0.10679510235786438,
                        0.09869197756052017,
                        0.08879557996988297
                    ],
                    [
                        0.05433916300535202,
                        0.042453452944755554,
                        -0.038528017699718475,
                        -0.07057267427444458,
                        0.052769068628549576,
                        0.10964056104421616,
                        0.012339183129370213,
                        0.05584033206105232,
                        -0.009904363192617893,
                        0.00337991607375443,
                        0.06844643503427505,
                        0.043395914137363434,
                        -0.07815296202898026,
                        -0.0306197851896286,
                        0.08676621317863464,
                        -0.0648672804236412,
                        0.15951873362064362,
                        0.10479408502578735,
                        0.041242316365242004,
                        0.012329128570854664,
                        0.03984998166561127,
                        -0.06749002635478973,
                        0.026507975533604622,
                        0.227132648229599,
                        0.02676393836736679,
                        -0.0468425527215004,
                        0.021964967250823975,
                        -0.026051880791783333,
                        -0.045252908021211624,
                        -0.06387964636087418,
                        0.20489509403705597,
                        0.01170463114976883,
                        -0.035636257380247116,
                        0.0030936659313738346,
                        0.13351374864578247,
                        -0.025425096973776817,
                        0.0557752288877964,
                        -0.06460414826869965,
                        -0.06434298306703568,
                        0.05138624832034111,
                        -0.059286754578351974,
                        -0.05930059030652046,
                        -0.0330769419670105,
                        0.038275346159935,
                        -0.07427280396223068,
                        -0.07635559886693954,
                        -0.013547430746257305,
                        -0.015781916677951813,
                        -0.010289037600159645,
                        0.10710067301988602,
                        0.010877924039959908,
                        0.08500853925943375,
                        -0.02571186237037182,
                        0.055365413427352905,
                        -0.1127655878663063,
                        0.04427623748779297,
                        0.06972549110651016,
                        0.00460851239040494,
                        -0.005988946184515953,
                        -0.08559845387935638,
                        0.10893445461988449,
                        0.10433661937713623,
                        -0.08432465046644211,
                        0.09658509492874146,
                        0.05459257960319519,
                        -0.029107073321938515,
                        0.07379646599292755,
                        0.03517760708928108,
                        0.02003542333841324,
                        0.07064799219369888,
                        -0.04615195468068123,
                        0.07509282231330872,
                        -0.11539995670318604,
                        -0.10133840143680573,
                        0.05636370927095413,
                        0.09087074548006058,
                        -0.05924944952130318,
                        -0.0752851814031601,
                        0.09197845309972763,
                        -0.014902924187481403,
                        -0.07122128456830978,
                        0.00027619997854344547,
                        -0.018222762271761894,
                        0.007638870272785425,
                        -0.08989923447370529,
                        -0.06522320955991745,
                        -0.08798468858003616,
                        0.06021317467093468,
                        0.0844055712223053,
                        -0.04293453320860863,
                        -0.036057695746421814,
                        0.08479783684015274,
                        -0.09316662698984146,
                        0.0202235896140337,
                        -0.09378619492053986,
                        0.02197033166885376,
                        0.024119677022099495,
                        0.05285584554076195,
                        -0.02016754262149334,
                        0.005659529473632574,
                        -0.017743298783898354,
                        -0.10915511846542358,
                        -0.09004273265600204,
                        0.04893719404935837,
                        -0.014943148009479046,
                        -0.021987605839967728,
                        0.07196035236120224,
                        0.05757664889097214,
                        0.08792981505393982,
                        0.06167012080550194,
                        -0.04388130083680153,
                        0.017971858382225037,
                        -0.014375456608831882,
                        0.05138798803091049,
                        -0.09610319137573242,
                        -0.05238139256834984,
                        -0.10024084150791168,
                        -0.07484765350818634,
                        0.07421492785215378,
                        0.05066189169883728,
                        -0.05482831969857216,
                        0.15802671015262604,
                        0.061132900416851044,
                        0.0692153126001358,
                        0.05364486202597618,
                        0.09018830955028534,
                        -0.02357679232954979,
                        -0.07007669657468796,
                        -0.05210248753428459,
                        -0.11304936558008194,
                        -0.04415980726480484,
                        -0.09843692183494568,
                        -0.024995679035782814,
                        0.005765504203736782,
                        -0.011567248962819576,
                        -0.0958261713385582,
                        -0.009726759977638721,
                        -0.005301344208419323,
                        -0.09351693093776703,
                        -0.09228409081697464,
                        0.04444819688796997,
                        -0.10956134647130966,
                        -0.016760513186454773,
                        -0.0968501940369606,
                        0.004080554470419884,
                        -0.04629257693886757,
                        -0.00778199452906847,
                        -0.06574594229459763,
                        -0.014133637771010399,
                        0.018874607980251312,
                        -0.09976346045732498,
                        0.05554429069161415,
                        0.045871518552303314,
                        0.051264334470033646,
                        -0.021246524527668953,
                        0.0208025760948658,
                        -0.09419255703687668,
                        -0.014392933808267117,
                        -0.07123198360204697,
                        0.05027361586689949,
                        0.036591075360774994,
                        0.0802437886595726,
                        0.045453280210494995,
                        0.030053244903683662,
                        -0.07238634675741196,
                        -0.05714304745197296,
                        0.042335014790296555,
                        -0.058484721928834915,
                        -0.061217207461595535,
                        0.05456375703215599,
                        0.0010963045060634613,
                        -0.05211178958415985,
                        0.005996933206915855,
                        -0.04710335657000542,
                        0.014833453111350536,
                        -0.0207896176725626,
                        -0.03394656628370285,
                        -0.031006406992673874,
                        0.024060389026999474,
                        0.06231984868645668,
                        -0.014216465875506401,
                        0.09427167475223541,
                        -0.11148902028799057,
                        0.08011559396982193,
                        0.06357982754707336,
                        0.09850414842367172,
                        -0.09977433830499649,
                        -0.05680584907531738,
                        0.05454213172197342,
                        -0.039426643401384354,
                        -0.07725965976715088,
                        0.065587118268013,
                        -0.029661744832992554,
                        -0.051113203167915344,
                        0.03963765501976013,
                        0.09049183130264282,
                        -0.0048305499367415905,
                        -0.03492915630340576,
                        0.05026869475841522,
                        0.10693039000034332,
                        0.04985963553190231,
                        0.1667291820049286,
                        -0.0984157919883728,
                        0.05955204367637634,
                        0.02254095859825611,
                        0.024968914687633514,
                        0.060625746846199036,
                        0.09543823450803757,
                        0.06141909956932068,
                        -0.015167780220508575,
                        -0.05608750507235527,
                        0.03138032928109169,
                        -0.04430992156267166,
                        0.019190093502402306,
                        0.05185319483280182,
                        0.012528091669082642,
                        0.023306995630264282,
                        0.10187862813472748,
                        0.09178765118122101,
                        -0.012479026801884174,
                        -0.05476691201329231,
                        -0.076059989631176,
                        -0.17246419191360474,
                        -0.05884808301925659,
                        -0.037909530103206635,
                        0.07355281710624695,
                        -0.01350164134055376,
                        -0.011675913818180561,
                        0.027221478521823883,
                        -0.07070766389369965,
                        0.08571387827396393,
                        0.005253800190985203,
                        0.0679394081234932,
                        0.048524629324674606,
                        0.05525054782629013,
                        -0.06604704260826111,
                        0.005151932593435049,
                        0.06728393584489822,
                        0.04447990655899048,
                        -0.027002697810530663,
                        -0.06448964029550552,
                        -0.038787052035331726,
                        -0.04690278321504593,
                        0.042415518313646317,
                        -0.08764924108982086,
                        -0.08070238679647446,
                        -0.022339483723044395,
                        -0.06395652145147324,
                        0.0021913996897637844,
                        -0.03740094229578972,
                        0.09362716972827911,
                        0.06188574805855751,
                        -0.0963108241558075,
                        0.031182866543531418,
                        0.09946344792842865,
                        -0.061809491366147995
                    ],
                    [
                        0.041601307690143585,
                        -0.025782907381653786,
                        0.003830583766102791,
                        -0.10358893871307373,
                        -0.007485165260732174,
                        0.060764994472265244,
                        -0.07228375971317291,
                        0.0743279978632927,
                        -0.014498895965516567,
                        -0.0737699493765831,
                        -0.09272325038909912,
                        -0.07666882127523422,
                        -0.0565178208053112,
                        0.10492753982543945,
                        -0.02548116073012352,
                        0.034028321504592896,
                        -0.20576155185699463,
                        0.05151478946208954,
                        -0.06205456331372261,
                        0.011185573413968086,
                        -0.08664976805448532,
                        0.10816990584135056,
                        0.0055117132142186165,
                        -0.14836251735687256,
                        0.008798730559647083,
                        -0.06847404688596725,
                        0.044856369495391846,
                        0.034371595829725266,
                        0.016405869275331497,
                        -0.029525211080908775,
                        -0.17429499328136444,
                        0.020265376195311546,
                        0.10353230684995651,
                        0.058249589055776596,
                        -0.0181159395724535,
                        -0.06874425709247589,
                        -0.09977959096431732,
                        -0.014356957748532295,
                        0.04412494972348213,
                        -0.005670803599059582,
                        0.07736830413341522,
                        0.07620825618505478,
                        -0.08562048524618149,
                        0.013797029852867126,
                        -0.09734597057104111,
                        -0.027056068181991577,
                        -0.06280083954334259,
                        -0.09572993218898773,
                        -0.054976627230644226,
                        0.032411474734544754,
                        0.027486884966492653,
                        -0.02478892169892788,
                        -0.05306336283683777,
                        -0.05050958693027496,
                        -0.00047285135951824486,
                        0.05168462172150612,
                        -0.10262621194124222,
                        0.02672867476940155,
                        -0.05524960160255432,
                        -0.0803714320063591,
                        -0.04930652305483818,
                        0.02686377801001072,
                        0.09251552075147629,
                        -0.06912215054035187,
                        -0.07167180627584457,
                        0.10140514373779297,
                        -0.04449845477938652,
                        -0.07279952615499496,
                        0.00466248719021678,
                        -0.004295951686799526,
                        -0.03306392952799797,
                        -0.07559288293123245,
                        0.04293982312083244,
                        -0.10104279220104218,
                        0.08839605003595352,
                        -0.052955757826566696,
                        -0.08773236721754074,
                        -0.04501131922006607,
                        0.023437201976776123,
                        -0.10419082641601562,
                        0.092786505818367,
                        -0.0836213231086731,
                        0.08696206659078598,
                        -0.07065285742282867,
                        0.030202670022845268,
                        -0.07207509875297546,
                        0.07952290028333664,
                        -0.10386762768030167,
                        -0.02525373175740242,
                        -0.05657277628779411,
                        -0.00139467918779701,
                        0.0334586501121521,
                        -0.09848657250404358,
                        0.02142978087067604,
                        0.07217758148908615,
                        -0.09623348712921143,
                        -0.040075141936540604,
                        0.01683979667723179,
                        0.06997404992580414,
                        0.09735236316919327,
                        0.03648093342781067,
                        0.004588194657117128,
                        -0.09295693784952164,
                        0.06071939319372177,
                        0.07839180529117584,
                        0.021469375118613243,
                        0.07473018765449524,
                        -0.05552230775356293,
                        0.0928935706615448,
                        0.07780828326940536,
                        -0.022967346012592316,
                        -0.07997582852840424,
                        -0.02399798482656479,
                        -0.04608467221260071,
                        -0.07920002192258835,
                        0.03189188614487648,
                        -0.016602301970124245,
                        0.09432320296764374,
                        0.10542605072259903,
                        0.04485737532377243,
                        -0.08322109282016754,
                        -0.17106789350509644,
                        -0.013630252331495285,
                        -0.10202285647392273,
                        -0.01900126226246357,
                        0.0953899472951889,
                        -0.07827749848365784,
                        0.00331667042337358,
                        0.092716284096241,
                        -0.044976845383644104,
                        -0.08934945613145828,
                        -0.04388587549328804,
                        -0.006816699169576168,
                        0.03076782636344433,
                        0.06872225552797318,
                        0.09388694912195206,
                        0.10782021284103394,
                        -0.08868635445833206,
                        0.03354679420590401,
                        -0.06461677700281143,
                        -0.009612949565052986,
                        0.11699877679347992,
                        0.02399134822189808,
                        0.007786146365106106,
                        0.013556105084717274,
                        -0.007952757179737091,
                        0.01570197381079197,
                        -0.03261958807706833,
                        -0.0924895703792572,
                        0.09655975550413132,
                        0.05709133297204971,
                        0.06924787163734436,
                        -0.05931847169995308,
                        -0.0930413156747818,
                        0.09860456734895706,
                        0.09016364067792892,
                        0.033578719943761826,
                        -0.004869685973972082,
                        -0.009712751023471355,
                        -0.035833168774843216,
                        0.018574515357613564,
                        -0.05391288548707962,
                        -0.038527633994817734,
                        -0.09040937572717667,
                        -0.0470142737030983,
                        0.00877089612185955,
                        0.021415401250123978,
                        0.06842373311519623,
                        -0.04385165870189667,
                        -0.06567396968603134,
                        0.013518884778022766,
                        -0.024956490844488144,
                        -0.039353225380182266,
                        -0.017761949449777603,
                        0.09947517514228821,
                        0.013446055352687836,
                        0.047864049673080444,
                        -0.08046969026327133,
                        0.0711391419172287,
                        -0.03159899637103081,
                        0.006031981203705072,
                        0.10572963953018188,
                        -0.013648786582052708,
                        -0.10702499747276306,
                        -0.02192610688507557,
                        -0.011864311061799526,
                        -0.060910504311323166,
                        -0.0756298154592514,
                        -0.01777479238808155,
                        -0.06058484688401222,
                        -0.04945656657218933,
                        0.04638530686497688,
                        0.05336516350507736,
                        -0.009640959091484547,
                        0.06649558246135712,
                        0.060965318232774734,
                        -0.06603516638278961,
                        0.056832026690244675,
                        0.09560027718544006,
                        -0.08878400921821594,
                        0.06794827431440353,
                        -0.14601103961467743,
                        0.04164343327283859,
                        0.02383936382830143,
                        -0.006612516473978758,
                        -0.10607441514730453,
                        0.07047642767429352,
                        -0.0683671161532402,
                        0.06755166500806808,
                        0.01860545203089714,
                        0.0735677108168602,
                        0.05928565934300423,
                        0.0004182884586043656,
                        -0.07824332267045975,
                        -0.08550838381052017,
                        -0.029331058263778687,
                        0.04516235366463661,
                        0.08750241994857788,
                        0.06018637493252754,
                        -0.06543191522359848,
                        -0.0009248377755284309,
                        0.05396963283419609,
                        0.1757955104112625,
                        0.0628998875617981,
                        -0.036312904208898544,
                        -0.08752167224884033,
                        0.004690189845860004,
                        -0.017341244965791702,
                        -0.08026067167520523,
                        0.06725585460662842,
                        0.004977999720722437,
                        -0.10871590673923492,
                        0.013251646421849728,
                        0.0094840032979846,
                        -0.06756474822759628,
                        -0.04456167295575142,
                        0.04864241182804108,
                        -0.02285323105752468,
                        0.04560112580657005,
                        -0.09062487632036209,
                        0.06189166381955147,
                        0.025843795388936996,
                        -0.027210606262087822,
                        -0.040380556136369705,
                        -0.03447511047124863,
                        0.09628671407699585,
                        -0.058057114481925964,
                        0.08967258036136627,
                        0.09591875225305557,
                        -0.05322963744401932,
                        0.07518693804740906,
                        0.03258998692035675,
                        0.18913693726062775,
                        0.06108790636062622,
                        0.0737641304731369,
                        -0.05939110741019249
                    ],
                    [
                        0.03159412741661072,
                        -0.10685271769762039,
                        0.06336633861064911,
                        0.07252134382724762,
                        0.004011857323348522,
                        -0.07954475283622742,
                        0.016586950048804283,
                        -0.07083708047866821,
                        -0.02826666459441185,
                        -0.08824118971824646,
                        -0.10713699460029602,
                        -0.02241123840212822,
                        -0.0699038952589035,
                        0.03969838097691536,
                        -0.10488119721412659,
                        0.10253007709980011,
                        -0.12417411804199219,
                        0.07830142974853516,
                        0.07754876464605331,
                        0.08168348670005798,
                        -0.020048175007104874,
                        0.09305404871702194,
                        0.07033208757638931,
                        -0.14344775676727295,
                        -0.08748560398817062,
                        0.023514894768595695,
                        -0.02956320345401764,
                        0.06325523555278778,
                        -0.05406863987445831,
                        0.033307578414678574,
                        -0.11311087757349014,
                        0.06763909757137299,
                        0.08171781152486801,
                        0.08712805807590485,
                        -0.18460549414157867,
                        -0.058922771364450455,
                        0.009051193483173847,
                        -0.06309188157320023,
                        -0.017356840893626213,
                        0.0591670460999012,
                        -0.07740535587072372,
                        -0.021061647683382034,
                        -0.1007436141371727,
                        0.1083989292383194,
                        -0.09833204001188278,
                        -0.06252783536911011,
                        0.042625200003385544,
                        0.09293568134307861,
                        -0.09324140101671219,
                        0.0011671055108308792,
                        -0.0986984372138977,
                        0.066452257335186,
                        -0.01581304892897606,
                        -0.07893156260251999,
                        0.10845676064491272,
                        -0.102869413793087,
                        0.10034571588039398,
                        -0.07488825172185898,
                        0.09280035644769669,
                        -0.06915999203920364,
                        -0.09867044538259506,
                        9.230206342181191e-05,
                        0.0769580528140068,
                        0.10153017938137054,
                        0.08075062185525894,
                        0.10324731469154358,
                        -0.11120477318763733,
                        0.08612021058797836,
                        -0.03150128200650215,
                        -0.07626552134752274,
                        -0.08462680876255035,
                        0.058827973902225494,
                        -0.005059358663856983,
                        0.017949391156435013,
                        -0.022429000586271286,
                        -0.022452518343925476,
                        0.03864198923110962,
                        -0.031862568110227585,
                        0.07041319459676743,
                        0.023705556988716125,
                        0.022670136764645576,
                        0.04656554386019707,
                        0.0347747802734375,
                        -0.040017884224653244,
                        0.09954214841127396,
                        0.06549660861492157,
                        -0.04680364951491356,
                        -0.04049577936530113,
                        -0.048369526863098145,
                        -0.09838823229074478,
                        -0.05027841031551361,
                        -0.09550534188747406,
                        0.07003182917833328,
                        0.047926999628543854,
                        0.07223599404096603,
                        0.03882264345884323,
                        0.10244005173444748,
                        0.04724042862653732,
                        -0.03580857440829277,
                        0.026486342772841454,
                        0.10817907005548477,
                        0.02810005657374859,
                        0.0473267026245594,
                        -0.012693138793110847,
                        0.08559229969978333,
                        -0.027396084740757942,
                        -0.07608603686094284,
                        0.07935746759176254,
                        0.08710278570652008,
                        0.064930260181427,
                        0.0860813558101654,
                        -0.025081001222133636,
                        0.10187679529190063,
                        -0.021955959498882294,
                        0.09902502596378326,
                        0.09035052359104156,
                        -0.06760894507169724,
                        0.013314088806509972,
                        0.043855469673871994,
                        0.013356825336813927,
                        0.09032619744539261,
                        -0.12391596287488937,
                        -0.07860897481441498,
                        0.09658829122781754,
                        0.0433417446911335,
                        -0.016878223046660423,
                        -0.09947196394205093,
                        -0.08143648505210876,
                        -0.01637442409992218,
                        -0.025450512766838074,
                        -0.05785355716943741,
                        -0.05841333791613579,
                        -0.07940571010112762,
                        -0.026621198281645775,
                        -0.04704146087169647,
                        0.0804591104388237,
                        0.009487560950219631,
                        -0.013754949904978275,
                        -0.03279273957014084,
                        -0.08646582812070847,
                        0.04550951346755028,
                        0.12905681133270264,
                        0.0646933913230896,
                        -0.0688927099108696,
                        -0.08278114348649979,
                        0.04638182371854782,
                        -0.10354508459568024,
                        -0.06010359525680542,
                        0.10050326585769653,
                        0.02852591872215271,
                        0.06497950106859207,
                        -0.1006828024983406,
                        -0.07086294889450073,
                        -0.06686048209667206,
                        0.08511237055063248,
                        -0.07504401355981827,
                        -0.019128119572997093,
                        0.10451798886060715,
                        0.03456653282046318,
                        0.04240163788199425,
                        0.05640760436654091,
                        0.08621180802583694,
                        -0.029113266617059708,
                        -0.10615760833024979,
                        -0.08506056666374207,
                        0.039911407977342606,
                        0.09943517297506332,
                        -0.030074993148446083,
                        0.08575228601694107,
                        0.04931546002626419,
                        -0.0879579484462738,
                        -0.006149595603346825,
                        -0.037332683801651,
                        -0.02948255091905594,
                        0.0942532941699028,
                        -0.011975299566984177,
                        0.007534561678767204,
                        -0.09123936295509338,
                        0.08615433424711227,
                        -0.09924472868442535,
                        -0.03805089741945267,
                        -0.04852786287665367,
                        -0.02888069674372673,
                        -0.0030069611966609955,
                        0.056893471628427505,
                        -0.04468781501054764,
                        0.100753054022789,
                        0.07578831911087036,
                        0.06683163344860077,
                        0.004455456044524908,
                        0.0795251727104187,
                        0.06627213954925537,
                        -0.054133910685777664,
                        0.043191831558942795,
                        0.014638169668614864,
                        0.028400782495737076,
                        -0.044140782207250595,
                        -0.029039116576313972,
                        0.03274443373084068,
                        -0.03315788134932518,
                        -0.04520905762910843,
                        -0.11472415924072266,
                        -0.06876276433467865,
                        0.08477293699979782,
                        -0.07137349247932434,
                        0.0054678721353411674,
                        0.02440616488456726,
                        0.03190431371331215,
                        0.014721988700330257,
                        0.01330895908176899,
                        -0.10993438214063644,
                        -0.05282115936279297,
                        0.08295588195323944,
                        0.10666611790657043,
                        -0.09724413603544235,
                        0.06682466715574265,
                        -0.052940867841243744,
                        0.05725349113345146,
                        0.027172690257430077,
                        -0.029023844748735428,
                        0.03963460773229599,
                        -0.10087528079748154,
                        0.05746818706393242,
                        -0.09828650206327438,
                        -0.0020361144561320543,
                        -0.00811783317476511,
                        -0.06525220721960068,
                        0.0578366294503212,
                        -0.073792465031147,
                        -0.10019827634096146,
                        -0.07995711266994476,
                        -0.08787770569324493,
                        0.04703068733215332,
                        -0.02080276422202587,
                        -0.013241481967270374,
                        0.060645557940006256,
                        -0.08065231889486313,
                        0.06205710396170616,
                        0.006295086815953255,
                        -0.04285186529159546,
                        -0.03324262425303459,
                        -0.0518655888736248,
                        0.0005176278064027429,
                        -0.011288597248494625,
                        0.021569538861513138,
                        0.0017665749182924628,
                        0.03304602950811386,
                        0.0267826858907938,
                        0.0372617281973362,
                        0.05490598455071449,
                        -0.07941349595785141,
                        0.03417985141277313,
                        0.13277873396873474,
                        0.0878104418516159,
                        -0.027463652193546295,
                        -0.002548020798712969
                    ],
                    [
                        0.01766994222998619,
                        0.09534971415996552,
                        -0.013253157958388329,
                        -0.09619873017072678,
                        -0.06661058962345123,
                        0.09689313173294067,
                        0.0394536554813385,
                        0.027930960059165955,
                        -0.05201912671327591,
                        -0.0912676528096199,
                        -0.016281962394714355,
                        0.03373515605926514,
                        -0.1050603911280632,
                        0.052827220410108566,
                        -0.033268947154283524,
                        0.03370080515742302,
                        0.01838184893131256,
                        -0.10805591195821762,
                        0.027059273794293404,
                        -0.01935821771621704,
                        -0.0027769131120294333,
                        0.09578323364257812,
                        0.09525676816701889,
                        0.145820751786232,
                        0.045830801129341125,
                        -0.014809279702603817,
                        -0.09822013974189758,
                        -0.0675150528550148,
                        -0.0018362924456596375,
                        0.04367772862315178,
                        0.05577956512570381,
                        0.05759325623512268,
                        0.02489185892045498,
                        -0.08849037438631058,
                        0.001579470350407064,
                        0.08455538749694824,
                        -0.025546733289957047,
                        -0.058387573808431625,
                        -0.07099472731351852,
                        0.006587218027561903,
                        0.06742648035287857,
                        -0.01392491813749075,
                        -0.09603847563266754,
                        -0.022630147635936737,
                        -0.04955117031931877,
                        0.04376716539263725,
                        0.0012533679837360978,
                        -0.0739443451166153,
                        0.027927087619900703,
                        -0.088832788169384,
                        -0.05017492547631264,
                        -0.09725223481655121,
                        0.09962447732686996,
                        0.0483318567276001,
                        0.08476032316684723,
                        -0.0038452574517577887,
                        0.009305241517722607,
                        -0.0743711069226265,
                        -0.02672881819307804,
                        -0.0850185751914978,
                        0.06350124627351761,
                        -0.06763041019439697,
                        -0.053543031215667725,
                        0.0633024051785469,
                        -0.04434002935886383,
                        -0.01875467039644718,
                        0.10358799248933792,
                        0.09607906639575958,
                        0.01922599785029888,
                        -0.03566454350948334,
                        -0.03221104294061661,
                        0.07990148663520813,
                        -0.08466677367687225,
                        0.023690354079008102,
                        -0.03466325253248215,
                        0.02996208146214485,
                        -0.10003884881734848,
                        0.003526546061038971,
                        0.09382480382919312,
                        -0.07604164630174637,
                        0.10275506973266602,
                        -0.08067978173494339,
                        -0.0397229827940464,
                        0.04845430701971054,
                        0.06597080826759338,
